// Pesos del modelo Bala2 generados automaticamente

const float layer1_w[32][4] = {
    {-0.4229213297367096f, 0.0622539147734642f, -0.2719625234603882f, 0.06387006491422653f},
    {0.5840827822685242f, -0.2227264642715454f, -0.4087786078453064f, -0.2824837863445282f},
    {0.23620840907096863f, 0.1325569897890091f, -0.03212971240282059f, 0.004466038662940264f},
    {0.2604537904262543f, 0.12511500716209412f, 0.07855825871229172f, -0.4110724925994873f},
    {-0.2651907503604889f, 0.39923879504203796f, -0.19245728850364685f, -0.27848514914512634f},
    {-0.4196639060974121f, -0.4538816213607788f, 0.07207217067480087f, 0.008865952491760254f},
    {-0.5746548771858215f, -0.07395882159471512f, -0.1727442890405655f, -0.0662231594324112f},
    {-0.5374273657798767f, -0.12429870665073395f, 0.27505481243133545f, 0.13280987739562988f},
    {-0.052206024527549744f, 0.25065377354621887f, 0.4687737822532654f, 0.28772106766700745f},
    {0.23609335720539093f, -0.305673211812973f, -0.004128201398998499f, -0.04272225499153137f},
    {0.20310594141483307f, -0.20758439600467682f, -0.4647872745990753f, 0.5530127286911011f},
    {-0.03920302912592888f, -0.4307166635990143f, -0.10995268821716309f, 0.05483108013868332f},
    {-0.32682064175605774f, 0.09555985778570175f, -0.24236279726028442f, 0.12716667354106903f},
    {-0.04751794412732124f, 0.5754868984222412f, 0.3615947365760803f, -0.13883668184280396f},
    {0.2109273076057434f, -0.126240074634552f, 0.19852937757968903f, -0.09127067029476166f},
    {0.0007364319753833115f, -0.27309122681617737f, 0.329232782125473f, -0.16976886987686157f},
    {0.042941074818372726f, -0.18842235207557678f, -0.3840067684650421f, -0.23267817497253418f},
    {-0.009632404893636703f, -0.025119967758655548f, 0.41255682706832886f, -0.11619506031274796f},
    {0.07557175308465958f, 0.2050440013408661f, -0.09349004924297333f, 0.2838602662086487f},
    {-0.022195415571331978f, -0.297564297914505f, -0.6421900987625122f, -0.6799540519714355f},
    {0.06969150900840759f, -0.024559251964092255f, -0.4101908802986145f, -0.6538068652153015f},
    {0.2857612073421478f, 0.2984428405761719f, 0.0998540148139f, -0.04930808022618294f},
    {-0.1986912339925766f, 0.058789175003767014f, -0.5266770124435425f, -0.5124584436416626f},
    {0.09992392361164093f, -0.15673603117465973f, 0.06427374482154846f, -0.5619727969169617f},
    {-0.015211694873869419f, 0.03890248388051987f, -0.35438281297683716f, -0.2973870635032654f},
    {-0.20616047084331512f, 0.36132803559303284f, -0.3523824214935303f, 0.03507119417190552f},
    {-0.17627966403961182f, -0.03889526426792145f, 0.2834925949573517f, 0.4067680239677429f},
    {0.26688122749328613f, 0.1383749544620514f, -0.20574899017810822f, 0.31089136004447937f},
    {-0.10930466651916504f, -0.23367254436016083f, 0.14862196147441864f, 0.5134164094924927f},
    {0.09116365760564804f, 0.14312419295310974f, -0.3210342824459076f, 0.18588167428970337f},
    {0.1144835352897644f, -0.46325960755348206f, 0.12229124456644058f, 0.06573311984539032f},
    {-0.3146110773086548f, -0.21553388237953186f, -0.43284866213798523f, -0.3983897268772125f}
};

const float layer1_b[32] = {0.010388576425611973f, 0.02467632293701172f, 0.031806789338588715f, -0.009998942725360394f, 0.0055700261145830154f, 0.03864890709519386f, -0.002233583014458418f, -0.011381035670638084f, -0.018806591629981995f, -0.016529066488146782f, 0.02671652100980282f, 0.035704758018255234f, 0.0021317428909242153f, -0.010136397555470467f, -0.019329627975821495f, 0.0061893281526863575f, 0.046344317495822906f, -0.03267160803079605f, -0.005715096835047007f, 0.019952677190303802f, -0.008032386191189289f, -0.03281451761722565f, 0.00826176069676876f, -0.00548382755368948f, 0.0068227797746658325f, 0.027589639648795128f, 0.0015258839121088386f, -0.011416465975344181f, 0.005909816827625036f, 0.01669873483479023f, -0.001086682896129787f, 0.025041336193680763f};

const float layer2_w[32][32] = {
    {0.09752094000577927f, 0.3119015693664551f, -0.43572044372558594f, 0.13282857835292816f, 0.05442105606198311f, -0.03440605103969574f, 0.06999965757131577f, -0.08357607573270798f, -0.18350309133529663f, 0.1540270894765854f, -0.1290496438741684f, 0.46175241470336914f, -0.117250956594944f, 0.1340065598487854f, -0.5090513229370117f, 0.4386115074157715f, 0.008377788588404655f, -0.3444007635116577f, 0.35593852400779724f, -0.2159349024295807f, -0.14629779756069183f, -0.17510385811328888f, 0.1561960130929947f, -0.10506744682788849f, 0.1349126100540161f, 0.10493563860654831f, -0.26620930433273315f, -0.6005449891090393f, -0.15705358982086182f, -0.3252750039100647f, -0.10816972702741623f, 0.031834423542022705f},
    {0.031974129378795624f, -0.08282184600830078f, -0.2392992377281189f, 0.3528440594673157f, -0.3021167516708374f, 0.18648749589920044f, -0.25206324458122253f, 0.0014990967465564609f, 0.3456382751464844f, 0.1360698640346527f, 0.3215615451335907f, -0.20108099281787872f, 0.2725007236003876f, -0.08478166162967682f, -0.3559386730194092f, -0.01022661104798317f, 0.3163973391056061f, -0.013952595181763172f, -0.37245312333106995f, 0.07474539428949356f, -0.0827302560210228f, 0.28242239356040955f, -0.008277676068246365f, -0.5378401279449463f, -0.536337673664093f, -0.02154068648815155f, 0.3595987558364868f, -0.22814318537712097f, 0.33472731709480286f, -0.10198870301246643f, -0.22618716955184937f, -0.17701168358325958f},
    {-0.17352665960788727f, 0.37803635001182556f, -0.11855936050415039f, -0.026080800220370293f, -0.010223396122455597f, 0.27072829008102417f, -0.16277611255645752f, -0.1325102597475052f, -0.32387807965278625f, -0.41377630829811096f, 0.08450751006603241f, -0.34911617636680603f, -0.5149286985397339f, -0.5375818014144897f, 0.11006972193717957f, 0.34558048844337463f, 0.05200220271945f, -0.2284563034772873f, 0.09996052831411362f, 0.17247651517391205f, 0.13624882698059082f, -0.021355094388127327f, -0.24416977167129517f, 0.23724502325057983f, -0.21066242456436157f, 0.009206652641296387f, 0.3237212598323822f, -0.23151880502700806f, -0.36392465233802795f, 0.308325856924057f, -0.13552601635456085f, 0.14698709547519684f},
    {0.26335403323173523f, -0.054789360612630844f, -0.0925242230296135f, 0.07351994514465332f, 0.5772583484649658f, 0.2805435359477997f, -0.2685668170452118f, -0.01726733148097992f, 0.06770382076501846f, -0.11849643290042877f, -0.0794922336935997f, 0.06543680280447006f, 0.19598615169525146f, -0.13135051727294922f, 0.1199028342962265f, -0.08174977451562881f, 0.45118728280067444f, -0.20684422552585602f, 0.35949766635894775f, 0.6498376131057739f, 0.1534968465566635f, -0.3067227303981781f, -0.16846983134746552f, -0.25211793184280396f, 0.09522293508052826f, -0.06860314309597015f, -0.3312465250492096f, 0.1722196638584137f, -0.09227288514375687f, -0.2678658962249756f, -0.06473203748464584f, 0.5796695351600647f},
    {-0.34398195147514343f, 0.23845984041690826f, 0.0744781345129013f, 0.41710683703422546f, 0.09219039231538773f, 0.5906504988670349f, -0.14247587323188782f, -0.06051845848560333f, 0.3762805461883545f, -0.027399862185120583f, -0.16912133991718292f, -0.04518863558769226f, -0.3706139922142029f, 0.4665837585926056f, -0.2500453591346741f, -0.03454233333468437f, -0.02453679032623768f, -0.014599687419831753f, -0.0814690962433815f, 0.08044083416461945f, -0.009193221107125282f, 0.3939467668533325f, 0.037448860704898834f, 0.19279760122299194f, 0.265343576669693f, 0.3875335156917572f, -0.07779969274997711f, 0.1708717942237854f, -0.2749332785606384f, -0.024507027119398117f, 0.194976806640625f, 0.40328752994537354f},
    {0.7061929702758789f, 0.2596176564693451f, -0.31092894077301025f, -0.19211463630199432f, -0.21680234372615814f, -0.310394823551178f, -0.11885426938533783f, -0.14866647124290466f, -0.049962613731622696f, -0.25032809376716614f, 0.3574300706386566f, -0.006575446110218763f, -0.3057847321033478f, 0.13201582431793213f, 0.05776938796043396f, -0.1630229502916336f, 0.04545903950929642f, -0.14907488226890564f, -0.12603500485420227f, -0.10904110223054886f, 0.24826011061668396f, 0.07302818447351456f, 0.3529827892780304f, -0.06620984524488449f, 0.10108266025781631f, 0.38189804553985596f, 0.17383207380771637f, 0.40702730417251587f, -0.18411056697368622f, -0.25954562425613403f, 0.0795900970697403f, 0.3261640667915344f},
    {0.035065196454524994f, -0.1805761605501175f, -0.041193217039108276f, -0.1812453716993332f, 0.28373488783836365f, -0.41933920979499817f, -0.15066054463386536f, -0.06288094073534012f, -0.03656918182969093f, 0.3747188448905945f, 0.24066787958145142f, -0.21369411051273346f, -0.1926809698343277f, 0.343469500541687f, 0.08853420615196228f, -0.08859780430793762f, -0.33565571904182434f, -0.17400619387626648f, -0.3390643894672394f, 0.06485666334629059f, -0.3098188042640686f, 0.11956397444009781f, -0.7897145748138428f, 0.06515870988368988f, -0.48598745465278625f, 0.0734533965587616f, -0.06798993051052094f, -0.24782595038414001f, -0.05501165986061096f, -0.2552409768104553f, 0.27602502703666687f, -0.014668653719127178f},
    {0.1557568609714508f, -0.00811731442809105f, 0.5782680511474609f, 0.5160169005393982f, 0.08279053866863251f, -0.49031102657318115f, 0.028970954939723015f, -0.3868679404258728f, 0.24390505254268646f, 0.03073435090482235f, 0.08072327077388763f, 0.05307287722826004f, -0.19862596690654755f, -0.012187999673187733f, -0.1355760544538498f, 0.31950750946998596f, -0.1986941397190094f, 0.0007838419987820089f, 0.19480130076408386f, 0.3493795394897461f, 0.4372011125087738f, 0.05479209125041962f, 0.17025089263916016f, -0.2217746526002884f, 0.09157915413379669f, -0.41162413358688354f, 0.1644408404827118f, -0.10177579522132874f, -0.40265893936157227f, 0.06293752044439316f, 0.17890042066574097f, 0.04768652468919754f},
    {0.03368373215198517f, -0.09904929995536804f, 0.028178555890917778f, -0.209171324968338f, 0.058875180780887604f, 0.08875945210456848f, -0.02981317602097988f, -0.4701154828071594f, -0.16146327555179596f, -0.01044984720647335f, 0.01961328275501728f, 0.022746795788407326f, 0.3788002133369446f, -0.32256659865379333f, -0.7835184335708618f, 0.13880039751529694f, 0.07573240250349045f, 0.08376698940992355f, -0.24016882479190826f, 0.31525662541389465f, 0.4862457513809204f, -0.14999748766422272f, -0.0812339335680008f, 0.34117329120635986f, 0.12273217737674713f, 0.4930073022842407f, -0.28533440828323364f, 0.19870306551456451f, -0.19448623061180115f, 0.05242374911904335f, 0.1761493682861328f, -0.17882908880710602f},
    {-0.3898434638977051f, -0.31801527738571167f, -0.12679867446422577f, -0.09374057501554489f, 0.06745877861976624f, -0.2186114490032196f, 0.031689807772636414f, -0.1343449503183365f, -0.054322805255651474f, -0.025235842913389206f, -0.06236380711197853f, 0.21190591156482697f, -0.47161078453063965f, -0.23491688072681427f, -0.17708511650562286f, -0.6381959319114685f, -0.005177795421332121f, 0.047192253172397614f, -0.12930923700332642f, 0.5669549107551575f, -0.02495269663631916f, -0.24837535619735718f, 0.5550661683082581f, -0.10789153724908829f, 0.17872248589992523f, 0.3163706362247467f, 0.011358402669429779f, -0.40027451515197754f, -0.1561676263809204f, 0.12681153416633606f, -0.1515047252178192f, 0.2790091633796692f},
    {-0.19812355935573578f, -0.3108539581298828f, 0.08473134785890579f, -0.3449491858482361f, 0.08110447973012924f, -0.21327707171440125f, -0.20731495320796967f, 0.1720094084739685f, -0.047104235738515854f, 0.5203826427459717f, -0.038309596478939056f, -0.22282297909259796f, 0.024834631010890007f, -0.042415961623191833f, -0.33839645981788635f, 0.17401553690433502f, 0.4034132659435272f, -0.09898189455270767f, 0.03556676581501961f, -0.28479012846946716f, -0.40468090772628784f, 0.11679995059967041f, 0.01095173042267561f, 0.11594445258378983f, 0.24377655982971191f, -0.3120982050895691f, 0.6240886449813843f, 0.33087143301963806f, -0.3129866123199463f, -0.1802637279033661f, -0.1353846937417984f, 0.13726218044757843f},
    {-0.05782586708664894f, -0.16637791693210602f, -0.04028869420289993f, 0.16101861000061035f, -0.33442628383636475f, -0.3266281485557556f, -0.20041757822036743f, 0.00036379709490574896f, 0.14501294493675232f, -0.044373493641614914f, -0.13831618428230286f, -0.4513157308101654f, 0.33718663454055786f, -0.029891362413764f, 0.20040591061115265f, -0.24206413328647614f, 0.02657501958310604f, -0.4417975842952728f, 0.5216984748840332f, -0.025522500276565552f, 0.02488238923251629f, 0.19199790060520172f, -0.32287904620170593f, 0.011418327689170837f, 0.5001528263092041f, 0.4510349929332733f, 0.24027331173419952f, -0.28805842995643616f, 0.1933252066373825f, 0.013034177012741566f, 0.1465267688035965f, -0.2834017872810364f},
    {0.2884766459465027f, -0.11832737922668457f, 0.26509883999824524f, -0.1497378647327423f, -0.28250980377197266f, 0.04280968755483627f, -0.7411696314811707f, 0.12678317725658417f, 0.02877790667116642f, 0.16782456636428833f, -0.2047303467988968f, 0.0460466668009758f, -0.4008226990699768f, -0.013180050998926163f, -0.40345296263694763f, -0.4256684184074402f, -0.30651748180389404f, -0.042553629726171494f, 0.3918616473674774f, -0.21982300281524658f, -0.05166306719183922f, 0.10008352249860764f, -0.3073832392692566f, -0.0988825187087059f, -0.19674576818943024f, -0.2185455560684204f, -0.20501931011676788f, 0.21711915731430054f, 0.259493350982666f, 0.3104451596736908f, -0.2954515516757965f, -0.3294529318809509f},
    {0.3886232078075409f, -0.05081463232636452f, -0.3643195331096649f, 0.2464832365512848f, 0.2244032472372055f, 0.08700701594352722f, 0.04694480448961258f, -0.2699495553970337f, 0.06618071347475052f, -0.07399531453847885f, -0.2753964066505432f, -0.004752711392939091f, -0.06806536018848419f, 0.10434561967849731f, 0.14348527789115906f, -0.24334590137004852f, 0.21903011202812195f, 0.01189106423407793f, -0.007787724491208792f, 0.3430469334125519f, 0.049510907381772995f, 0.3000718653202057f, 0.2775208353996277f, 0.6961265206336975f, -0.044667866080999374f, -0.2666205167770386f, -0.043492577970027924f, -0.10451288521289825f, -0.39388054609298706f, -0.18503330647945404f, -0.3534165918827057f, -0.4788062274456024f},
    {0.21667784452438354f, 0.05164312943816185f, 0.10207410901784897f, 0.08416131138801575f, 0.31281641125679016f, 0.188652902841568f, -0.04004570096731186f, 0.35583552718162537f, -0.003820862388238311f, 0.27935948967933655f, -0.27661794424057007f, 0.07936355471611023f, 0.1909404993057251f, -0.2973552644252777f, 0.16628612577915192f, -0.3225598931312561f, 0.08051571249961853f, -0.19440869987010956f, -0.30386772751808167f, -0.4140830934047699f, 0.4962872862815857f, 0.027901193127036095f, 0.1412951797246933f, -0.24930933117866516f, -0.04682278260588646f, 0.22903552651405334f, -0.11269935220479965f, -0.3064287602901459f, -0.7261399626731873f, 0.21231436729431152f, 0.09158090502023697f, 0.02193446084856987f},
    {-0.0781145691871643f, -0.1539003700017929f, -0.24256682395935059f, 0.32892197370529175f, -0.20515260100364685f, -0.0123169319704175f, 0.26410016417503357f, 0.22693198919296265f, -0.2856646776199341f, 0.1623114049434662f, 0.5568999648094177f, 0.12566669285297394f, -0.11588358879089355f, 0.16816429793834686f, -0.05717156082391739f, -0.2685338258743286f, 0.24244211614131927f, 0.6708184480667114f, 0.44897738099098206f, -0.15921372175216675f, 0.06579325348138809f, 0.005037445109337568f, -0.5941272377967834f, -0.10789301991462708f, 0.014883698895573616f, 0.006885354407131672f, 0.11865752190351486f, 0.08971117436885834f, -0.2955748438835144f, 0.05737769231200218f, -0.023457404226064682f, -0.1569087952375412f},
    {-0.09463927149772644f, -0.035623688250780106f, -0.30966290831565857f, -0.43824172019958496f, -0.17806243896484375f, -0.08313921093940735f, -0.24210573732852936f, -0.5050754547119141f, 0.6183295249938965f, 0.00400541489943862f, -0.2641795873641968f, 0.09840751439332962f, -0.20205417275428772f, -0.16374145448207855f, 0.2971251308917999f, 0.15146605670452118f, 0.22434721887111664f, 0.556383490562439f, -0.030802741646766663f, -0.37722185254096985f, -0.12374360114336014f, 0.020533686503767967f, -0.40339431166648865f, -0.3526161015033722f, 0.11276387423276901f, -0.15403971076011658f, 9.640678399591707e-06f, -0.10610169917345047f, -0.04007229954004288f, -0.05307077243924141f, 0.20745958387851715f, -0.1744009256362915f},
    {-0.20018184185028076f, 0.8345685005187988f, 0.268367201089859f, -0.06371351331472397f, -0.11010761559009552f, -0.3591804802417755f, 0.010246973484754562f, 0.12471529096364975f, 0.10116782039403915f, -0.12388011813163757f, -0.4086804986000061f, 0.3287150263786316f, 0.20143507421016693f, 0.2219488024711609f, -0.050375670194625854f, -0.21500200033187866f, 0.2353711724281311f, 0.025554543361067772f, -0.11764591187238693f, 0.3565547466278076f, 0.12364917248487473f, -0.3163869380950928f, -0.20693723857402802f, 0.08354502171278f, -0.16188782453536987f, 0.1848020702600479f, 0.26850417256355286f, 0.07793603837490082f, -0.2182619571685791f, -0.11055261641740799f, -0.35498613119125366f, -0.022945046424865723f},
    {0.0031385652255266905f, 0.3396153450012207f, -0.004636743571609259f, -0.002534289378672838f, 0.032879170030355453f, -0.10307548195123672f, 0.36036407947540283f, 0.20760102570056915f, -0.22141046822071075f, 0.010520468465983868f, -0.210468590259552f, -0.4965547025203705f, -0.2903200685977936f, -0.2825661599636078f, -0.09749571233987808f, 0.08929850906133652f, -0.09541565924882889f, 0.10597749799489975f, -0.2559807598590851f, 0.33232933282852173f, 0.07521086931228638f, 0.3474365472793579f, -0.029089409857988358f, -0.4417431056499481f, 0.49321046471595764f, -0.022897731512784958f, -0.4848253130912781f, 0.13989877700805664f, -0.1435568630695343f, -0.3799067735671997f, -0.38897091150283813f, -0.11296822875738144f},
    {0.02895740419626236f, 0.26200899481773376f, 0.2874002158641815f, -0.09092818945646286f, 0.5416168570518494f, 0.3286859095096588f, -0.31512364745140076f, -0.02296210080385208f, -0.2532997131347656f, 0.003746475325897336f, 0.27767834067344666f, 0.21058672666549683f, -0.1412954181432724f, -0.07870622724294662f, 0.03905707225203514f, -0.16709284484386444f, -0.06986058503389359f, 0.19018512964248657f, -0.05720064416527748f, -0.05703919008374214f, 0.14214789867401123f, -0.011706683784723282f, 0.04269609600305557f, -0.07594243437051773f, 0.36666613817214966f, 0.02530173771083355f, 0.4875692129135132f, -0.22088725864887238f, 0.3770076632499695f, -0.46502605080604553f, 0.19176825881004333f, -0.4347025454044342f},
    {0.4152331054210663f, -0.21505337953567505f, 0.13148565590381622f, -0.19110912084579468f, -0.09253901988267899f, 0.10676897317171097f, -0.1661411076784134f, 0.30973854660987854f, 0.17199715971946716f, -0.3746587634086609f, 0.09631811827421188f, 0.13049425184726715f, 0.5624576210975647f, -0.2686605751514435f, -0.18948782980442047f, 0.04154779389500618f, -0.5880653262138367f, 0.48202943801879883f, 0.08372075855731964f, -0.018396126106381416f, -0.5514351725578308f, 0.20986448228359222f, -0.12239481508731842f, 0.05424903333187103f, -0.0038208458572626114f, 0.1253848373889923f, 0.22805991768836975f, -0.33819106221199036f, -0.18284562230110168f, -0.11328260600566864f, -0.17732009291648865f, 0.29405471682548523f},
    {0.14435641467571259f, 0.24866701662540436f, -0.06414025276899338f, 0.08016083389520645f, -0.012955878861248493f, 0.1337672919034958f, 0.20207597315311432f, -0.432770699262619f, -0.20069050788879395f, 0.3017011880874634f, -0.31460466980934143f, -0.41722413897514343f, 0.07740049064159393f, 0.1262187659740448f, -0.1171838641166687f, -0.2505941689014435f, -0.12709163129329681f, 0.24543215334415436f, -0.047008760273456573f, -0.11967097967863083f, 0.5846511721611023f, -0.2112945020198822f, 0.07103722542524338f, 0.25565874576568604f, 0.15409579873085022f, -0.1947319507598877f, 0.0871896892786026f, -0.3282192647457123f, 0.22014077007770538f, -0.11225724965333939f, -0.30253171920776367f, 0.7383177280426025f},
    {0.23832951486110687f, 0.2939629554748535f, -0.28665655851364136f, 0.3563832938671112f, 0.49333035945892334f, -0.3694338798522949f, -0.04815090447664261f, -0.0811988115310669f, -0.4301859140396118f, -0.029556354507803917f, -0.4487501382827759f, 0.0971178412437439f, 0.02635415829718113f, -0.08690455555915833f, -0.14274360239505768f, 0.025209804996848106f, 0.2058076709508896f, 0.2515219748020172f, -0.14403313398361206f, 0.13393984735012054f, -0.19710233807563782f, 0.35059401392936707f, 0.05164673179388046f, -0.06697634607553482f, 0.1290464848279953f, 0.09152361750602722f, 0.10543227195739746f, 0.07643700391054153f, 0.26479780673980713f, 0.6260460615158081f, 0.27395108342170715f, 0.22376896440982819f},
    {-0.3093310296535492f, 0.4979272782802582f, 0.013934711925685406f, -0.0555734820663929f, 0.23395849764347076f, -0.31380853056907654f, -0.28394603729248047f, 0.051025088876485825f, 0.08592664450407028f, 0.4012279510498047f, 0.23314224183559418f, -0.21217262744903564f, -0.004179758485406637f, -0.2464028298854828f, 0.1845684051513672f, 0.13495783507823944f, 0.13294094800949097f, 0.31579679250717163f, 0.47133108973503113f, 0.11789841949939728f, 0.27259954810142517f, 0.2832415699958801f, 0.5584552884101868f, 0.2914719879627228f, -0.3336154818534851f, 0.2742902636528015f, -0.42243537306785583f, -0.027568243443965912f, 0.005904314108192921f, -0.07513075321912766f, -0.029026053845882416f, 0.16216465830802917f},
    {0.032051146030426025f, 0.18426793813705444f, 0.17971286177635193f, 0.12458717823028564f, -0.23372825980186462f, 0.10041002929210663f, -0.05559202656149864f, -0.41370704770088196f, -0.2247508466243744f, 0.6384817361831665f, 0.12127066403627396f, 0.5457477569580078f, -0.05616504326462746f, -0.12192939221858978f, 0.5486711263656616f, 0.24228084087371826f, 0.040510017424821854f, -0.12854066491127014f, -0.21240845322608948f, 0.381852388381958f, 0.07973834872245789f, 0.373700350522995f, -0.05206378176808357f, 0.1552179753780365f, 0.3715609014034271f, 0.22898808121681213f, -0.11523786187171936f, 0.04418359696865082f, -0.06599989533424377f, 0.15932168066501617f, -0.4431481659412384f, 0.23938529193401337f},
    {-0.38900911808013916f, 0.0726155936717987f, -0.08620469272136688f, -0.037867989391088486f, 0.07380614429712296f, 0.08192215114831924f, -0.19459708034992218f, -0.6618795990943909f, -0.3724638819694519f, -0.1004793792963028f, 0.06704777479171753f, -0.15976913273334503f, 0.422928124666214f, 0.2166203260421753f, 0.1343669295310974f, -0.30025190114974976f, -0.4083617627620697f, -0.09524542838335037f, 0.24067820608615875f, -0.2533540725708008f, -0.33937638998031616f, 0.11715872585773468f, 0.08882716298103333f, -0.5135605335235596f, -0.19639334082603455f, -0.10053740441799164f, 0.05666525661945343f, 0.3247047960758209f, -0.3145636320114136f, 0.030036309733986855f, -0.14263270795345306f, -0.2276652604341507f},
    {0.13601234555244446f, -0.1726549118757248f, -0.4198920428752899f, -0.5405551791191101f, 0.2488376796245575f, 0.26008597016334534f, 0.41004788875579834f, 0.24203424155712128f, 0.3819083869457245f, 0.2970389723777771f, -0.10736803710460663f, 0.002366097178310156f, 0.07479346543550491f, 0.18345537781715393f, -0.10402615368366241f, 0.13658899068832397f, -0.5279473066329956f, -0.00424714433029294f, 0.3547511100769043f, 0.2388562560081482f, 0.15202195942401886f, 0.09323497116565704f, -0.08419966697692871f, -0.2799012362957001f, -0.1753678321838379f, 0.12964002788066864f, 0.5663685202598572f, 0.11904160678386688f, 0.14018799364566803f, 0.2553712725639343f, -0.044856905937194824f, -0.24103666841983795f},
    {-0.35959339141845703f, -0.34421390295028687f, -0.10236755013465881f, -0.21695396304130554f, 0.11882483959197998f, -0.19181358814239502f, -0.17003118991851807f, 0.12444443255662918f, -0.28240129351615906f, -0.4942500591278076f, -0.14356260001659393f, 0.3613358736038208f, 0.06376098841428757f, 0.27346348762512207f, -0.027362095192074776f, 0.16549840569496155f, 0.09449134767055511f, -0.07897710055112839f, -0.0668359324336052f, -0.010091371834278107f, 0.7192883491516113f, 0.6170240640640259f, -0.025585433468222618f, -0.01951463147997856f, -0.025262093171477318f, -0.0850202813744545f, -0.0404525026679039f, -0.12492287904024124f, 0.056250445544719696f, -0.12521862983703613f, -0.27945610880851746f, 0.2581087052822113f},
    {0.28803008794784546f, -0.1052301749587059f, 0.4898407757282257f, -0.40091702342033386f, 0.2078598439693451f, 0.07042314112186432f, 0.12376034259796143f, -0.1781267672777176f, 0.008760173805058002f, -0.15305458009243011f, 0.23390904068946838f, -0.3187885582447052f, -0.06001509726047516f, 0.5707082748413086f, -0.008685197681188583f, 0.1372550129890442f, 0.4625723659992218f, 0.08294644206762314f, 0.07695691287517548f, -0.12836140394210815f, -0.20806927978992462f, 0.017236938700079918f, 0.03519834578037262f, -0.20181243121623993f, 0.034308888018131256f, 0.2723519504070282f, -0.10058559477329254f, -0.35506582260131836f, 0.010246839374303818f, 0.45772087574005127f, -0.3955232501029968f, -0.1541043519973755f},
    {0.09954003989696503f, 0.3116770386695862f, 0.1507064700126648f, -0.3691343367099762f, -0.4542149007320404f, 0.25510188937187195f, 0.1110612154006958f, 0.008864455856382847f, -0.4169253706932068f, 0.10098686814308167f, -0.21376514434814453f, 0.03524399548768997f, 0.043216999620199203f, 0.15072305500507355f, -0.042220622301101685f, -0.1106690987944603f, 0.32310763001441956f, 0.030855907127261162f, 0.07035406678915024f, 0.5763735175132751f, 0.09084369987249374f, 0.36145931482315063f, 0.27224597334861755f, -0.008176197297871113f, -0.04158296436071396f, -0.2751757800579071f, -0.13074155151844025f, -0.3281899094581604f, -0.22777491807937622f, -0.11700974404811859f, 0.6993054151535034f, 0.19703583419322968f},
    {-0.17739778757095337f, 0.47540783882141113f, -0.3248176574707031f, -0.1460312306880951f, 0.12288382649421692f, -0.12508417665958405f, -0.19451652467250824f, 0.09763495624065399f, 0.2690242826938629f, -0.03419684246182442f, 0.5541943311691284f, -0.02967124432325363f, 0.20517678558826447f, 0.13227327167987823f, -0.10980379581451416f, -0.1937445104122162f, -0.06766653060913086f, -0.15559153258800507f, -0.23927630484104156f, 0.14060163497924805f, 0.13566981256008148f, 0.016874855384230614f, 0.021843962371349335f, 0.19694013893604279f, 0.5738822817802429f, -0.55217444896698f, -0.27548980712890625f, -0.1665249615907669f, -0.12710396945476532f, 0.4420259892940521f, -0.02263898402452469f, 0.06095214933156967f},
    {0.015937207266688347f, -0.06466520577669144f, -0.257276713848114f, 0.1731335073709488f, -0.1545604020357132f, 0.03251343220472336f, -0.6294246912002563f, 0.24387192726135254f, -0.3355255424976349f, 0.12040790915489197f, -0.2194199562072754f, -0.22627650201320648f, 0.01888764277100563f, 0.45024189352989197f, 0.2183474600315094f, 0.4679652750492096f, -0.1253952980041504f, 0.3160155117511749f, -0.24606209993362427f, 0.40910065174102783f, 0.26654770970344543f, -0.48084354400634766f, 0.3301083743572235f, -0.030430257320404053f, 0.2364041805267334f, 0.12117695808410645f, -0.049475498497486115f, -0.04952928423881531f, -0.24917976558208466f, 0.08026807010173798f, -0.014885598793625832f, -0.07069480419158936f}
};

const float layer2_b[32] = {0.026621218770742416f, 0.004086863249540329f, 0.039725977927446365f, 0.045901667326688766f, -0.02152261883020401f, 0.004339965991675854f, -0.04100681468844414f, 0.0007089584250934422f, 0.033883560448884964f, 0.027655931189656258f, -0.023860175162553787f, -0.030880235135555267f, -0.01161959022283554f, -0.00602050730958581f, 0.02988029271364212f, -0.016639532521367073f, -0.04318694397807121f, 0.0066959429532289505f, -0.009517373517155647f, -0.008193857036530972f, -0.010315220803022385f, 0.003041456453502178f, 0.007890298962593079f, -0.001406593364663422f, 0.03312906250357628f, -0.04841601476073265f, -0.00715078879147768f, 0.007985766977071762f, -0.017955534160137177f, 0.025272103026509285f, 0.03174324333667755f, -0.011609847657382488f};

const float output_w[1][32] = {
    {-0.052335504442453384f, 0.07637065649032593f, -0.06910771131515503f, -0.1579824984073639f, -0.05306074023246765f, -0.03412496671080589f, 0.14536699652671814f, -0.06786536425352097f, -0.21867786347866058f, -0.13581229746341705f, 0.1472541242837906f, 0.05537250265479088f, 0.1105012446641922f, -0.07518627494573593f, -0.12945610284805298f, 0.11808996647596359f, 0.21355728805065155f, -0.08201434463262558f, -0.07339078187942505f, 0.0021373212803155184f, 0.09076633304357529f, -0.10903139412403107f, -0.06955050677061081f, -0.09764663875102997f, -0.09104258567094803f, 0.09408717602491379f, 0.09002579003572464f, -0.055714238435029984f, 0.038633622229099274f, -0.1092977449297905f, -0.05592530965805054f, -0.07411562651395798f}
};

const float output_b[1] = {-0.03936318680644035f};

