// Pesos del modelo Bala2 generados automaticamente

const float layer1_w[32][4] = {
    {-0.06632602214813232f, 0.28022903203964233f, 0.24933430552482605f, 0.3846938908100128f},
    {0.24880540370941162f, -0.25310641527175903f, 0.2738540470600128f, 0.10886012762784958f},
    {-0.08453423529863358f, -0.0034583366941660643f, -0.1089535653591156f, -0.20200176537036896f},
    {0.1295672059059143f, 0.41509926319122314f, -0.27655819058418274f, -0.15773651003837585f},
    {0.137908935546875f, -0.04690277576446533f, 0.09790107607841492f, -0.5114507675170898f},
    {0.2834070324897766f, -0.6323283314704895f, -0.25638407468795776f, 0.09035418927669525f},
    {-0.6506023406982422f, -0.1129586398601532f, 0.5793594121932983f, -0.2917671203613281f},
    {0.05885719135403633f, 0.3057229816913605f, 0.2943325936794281f, 0.39488986134529114f},
    {0.2971833646297455f, -0.22917428612709045f, -0.5845524072647095f, -0.44338294863700867f},
    {-0.04489322751760483f, 0.03530441224575043f, -0.09162919223308563f, -0.07732512056827545f},
    {-0.036141328513622284f, 0.0890226662158966f, 0.14405862987041473f, 0.20012705028057098f},
    {0.052245788276195526f, -0.2661648094654083f, -0.5198887586593628f, -0.4233950078487396f},
    {-0.3848297595977783f, 0.5045709013938904f, -0.34464800357818604f, -0.14367680251598358f},
    {-0.15717442333698273f, -0.13308674097061157f, -0.597313642501831f, 0.061569225043058395f},
    {0.04055582359433174f, -0.06671909242868423f, -0.40539100766181946f, -0.2557862102985382f},
    {-0.4916263222694397f, 0.2533188462257385f, -0.09358447045087814f, -0.1332574337720871f},
    {-0.2502472400665283f, -0.10395209491252899f, -0.35188713669776917f, 0.030667293816804886f},
    {0.3021017909049988f, -0.39878955483436584f, 0.02933042123913765f, -0.4522756338119507f},
    {-0.10668336600065231f, -0.10970169305801392f, -0.5647203326225281f, 0.02301252819597721f},
    {-0.04285921901464462f, -0.08030285686254501f, 0.3321070373058319f, 0.11474476009607315f},
    {0.07548857480287552f, 0.11399870365858078f, 0.1686784327030182f, 0.2613634765148163f},
    {0.4049715995788574f, 0.42489033937454224f, 0.4537164568901062f, 0.2691071629524231f},
    {-0.1494380682706833f, 0.31445038318634033f, 0.5937676429748535f, 0.16970211267471313f},
    {0.3175974488258362f, 0.29262498021125793f, -0.07046683877706528f, -0.8138667941093445f},
    {-0.09701227396726608f, -0.17299912869930267f, -0.42984554171562195f, 0.07751407474279404f},
    {-0.4704242944717407f, -0.1656082272529602f, 0.4092157483100891f, 0.3979242742061615f},
    {-0.08124686777591705f, 0.18360452353954315f, -0.21864278614521027f, -0.03981992229819298f},
    {-0.22096358239650726f, -0.2538996934890747f, 0.10231315344572067f, -0.007846124470233917f},
    {0.12353948503732681f, -0.024968620389699936f, -0.06929286569356918f, 0.27007612586021423f},
    {0.03335529565811157f, -0.19800002872943878f, 0.027190012857317924f, -0.3946758508682251f},
    {0.11775754392147064f, -0.051655255258083344f, 0.08698172122240067f, 0.4905288517475128f},
    {-0.110477015376091f, -0.026689626276493073f, -0.09038416296243668f, -0.08095049113035202f}
};

const float layer1_b[32] = {-0.011169370263814926f, -0.034689731895923615f, 0.06860668957233429f, 0.03839560225605965f, 0.024913249537348747f, 0.029156560078263283f, -0.04998435452580452f, -0.013351306319236755f, 0.008293894119560719f, -0.013950053602457047f, -0.0016531831352040172f, 0.0009018413256853819f, -0.006465719547122717f, 0.001130047719925642f, 0.005303707905113697f, -0.021715646609663963f, 0.0042242431081831455f, 0.023976562544703484f, 0.013204248622059822f, 0.004890287294983864f, -0.0068380930460989475f, -0.026720594614744186f, -0.0134727256372571f, 0.07676660269498825f, -0.006163217592984438f, -0.041200101375579834f, -0.01379543635994196f, -0.0024026515893638134f, -0.007180472370237112f, 0.0008396666380576789f, -0.007065063342452049f, -0.023118101060390472f};

const float layer2_w[32][32] = {
    {-0.09640101343393326f, -0.18317577242851257f, 0.10642343759536743f, 0.3316850960254669f, -0.35813555121421814f, -0.19701692461967468f, 0.4579674005508423f, -0.026920268312096596f, -0.04564741253852844f, -0.11696770042181015f, -0.010604677721858025f, -0.14899089932441711f, -0.01510170940309763f, 0.13430847227573395f, -0.5032058954238892f, 0.1758713275194168f, -0.12583057582378387f, 0.40003278851509094f, 0.062294453382492065f, 0.13055935502052307f, 0.052515607327222824f, 0.029230955988168716f, 0.05264850705862045f, -0.13468337059020996f, -0.6497605443000793f, -0.16884876787662506f, -0.05311017110943794f, 0.26401981711387634f, 0.14282400906085968f, -0.34009718894958496f, 0.4108431041240692f, -0.442722886800766f},
    {-0.17914903163909912f, -0.015327084809541702f, 0.4617854952812195f, -0.3475627899169922f, 0.03160493075847626f, -0.49966302514076233f, 0.22387902438640594f, 0.2674146592617035f, 0.6899225115776062f, 0.11292379349470139f, 0.1203862726688385f, 0.20549055933952332f, -0.34860333800315857f, 0.13494545221328735f, -0.15046098828315735f, 0.20545706152915955f, -0.1717718541622162f, -0.06347017735242844f, 0.029202980920672417f, 0.060654230415821075f, 0.104179248213768f, -0.30946746468544006f, -0.5796745419502258f, 0.09689539670944214f, 0.16040445864200592f, -0.2388603687286377f, 0.15059390664100647f, -0.16256608068943024f, -0.05878625065088272f, 0.2056177854537964f, -0.16309389472007751f, 0.14593109488487244f},
    {-0.13350172340869904f, 0.010704956017434597f, 0.09137579053640366f, 0.1185050904750824f, 0.19906571507453918f, 0.007055613212287426f, -0.23687517642974854f, 0.37078431248664856f, 0.0437004491686821f, -0.37353515625f, -0.2109251767396927f, 0.36595985293388367f, -0.05104893818497658f, 0.04192517697811127f, -0.1912442296743393f, 0.18930788338184357f, 0.06021754443645477f, -0.2308746874332428f, -0.020868411287665367f, 0.24210649728775024f, -0.10998877137899399f, 0.39697057008743286f, -0.062427397817373276f, -0.6197265386581421f, 0.10602805763483047f, 0.05647485703229904f, -0.5474448800086975f, -0.07685374468564987f, 0.48566296696662903f, -0.34290680289268494f, 0.12809184193611145f, 0.21898791193962097f},
    {-0.013549099676311016f, 0.037733450531959534f, 0.07164628803730011f, 0.3793356716632843f, 0.050686996430158615f, 0.41217032074928284f, 0.1602482944726944f, 0.1866576075553894f, 0.19489820301532745f, -0.5017644166946411f, -0.3848007619380951f, 0.26475515961647034f, -0.06497906148433685f, 0.10486006736755371f, 0.00842334982007742f, 0.13999654352664948f, 0.5008910298347473f, 0.34301480650901794f, 0.1198066920042038f, -0.25508973002433777f, 0.18545661866664886f, -0.11146567761898041f, -0.35171276330947876f, 0.41746431589126587f, 0.576731264591217f, 0.028588509187102318f, 0.4158305823802948f, -0.08315496891736984f, -0.050449762493371964f, -0.01854805275797844f, 0.032976895570755005f, -0.20282278954982758f},
    {0.18323732912540436f, 0.17919175326824188f, 0.33420050144195557f, -0.4533594250679016f, -0.12384293973445892f, 0.33268672227859497f, 0.2556338310241699f, -0.053633350878953934f, -0.12886878848075867f, -0.247422456741333f, -0.2566247284412384f, -0.18492074310779572f, -0.13709712028503418f, -0.15747736394405365f, -0.08232226222753525f, -0.2028595358133316f, 0.08506117016077042f, 0.15354777872562408f, -0.2634466886520386f, 0.36964669823646545f, 0.4872460663318634f, 0.1748141199350357f, 0.30285266041755676f, -0.1952355057001114f, -0.3663071393966675f, -0.06227222830057144f, 0.04878721013665199f, -0.5123744606971741f, -0.20944999158382416f, -0.38484489917755127f, -0.20848409831523895f, 0.25988438725471497f},
    {-0.36125999689102173f, -0.20281367003917694f, 0.3625783920288086f, -0.45269203186035156f, -0.13303858041763306f, -0.14416563510894775f, -0.14090609550476074f, -0.10075608640909195f, -0.44120341539382935f, 0.06093527004122734f, -0.4047495722770691f, 0.14002418518066406f, 0.1433139592409134f, 0.0586547888815403f, 0.046085719019174576f, -0.2330210953950882f, 0.13066399097442627f, 0.042083460837602615f, 0.5080652832984924f, -0.013963824138045311f, -0.13517865538597107f, -0.16472670435905457f, -0.44294050335884094f, 0.372313916683197f, 0.09920281171798706f, 0.23275922238826752f, -0.06948629021644592f, 0.3531763553619385f, -0.10856997221708298f, -0.3222954571247101f, 0.07670656591653824f, 0.28468748927116394f},
    {-0.39205238223075867f, -0.2738833725452423f, 0.13336965441703796f, 0.04119294881820679f, -0.005503514781594276f, 0.4806530773639679f, -0.24007011950016022f, -0.30256789922714233f, 0.5142719149589539f, 0.4799220561981201f, -0.4012543261051178f, -0.20348820090293884f, -0.5015310049057007f, 0.09722874313592911f, -0.14271783828735352f, 0.005568960215896368f, 0.04604819416999817f, 0.29818853735923767f, 0.2946414053440094f, 0.03504878282546997f, -0.5012831687927246f, 0.16624462604522705f, 0.01404117513448f, -0.08425841480493546f, 0.23505835235118866f, -0.08014797419309616f, 0.01024970505386591f, -0.14073611795902252f, -0.28464677929878235f, 0.25092795491218567f, 0.10007892549037933f, 0.06420165300369263f},
    {-0.04247821867465973f, -0.2526400089263916f, 0.12552481889724731f, 0.39899930357933044f, 0.7519879341125488f, -0.2346242517232895f, 0.20979930460453033f, -0.1760271191596985f, -0.09906059503555298f, -0.03347389027476311f, -0.3775979280471802f, -0.13460415601730347f, -0.2662118673324585f, -0.0064085801132023335f, 0.10735972970724106f, -0.10127624869346619f, -0.04476713016629219f, -0.199135884642601f, 0.1746571958065033f, -0.1924547702074051f, 0.2674039304256439f, 0.42955201864242554f, -0.20120768249034882f, 0.41707780957221985f, -0.36685335636138916f, -0.11778263002634048f, -0.16221493482589722f, 0.046016570180654526f, -0.10638505965471268f, 0.30913811922073364f, -0.21291892230510712f, 0.09634408354759216f},
    {-0.4465133845806122f, 0.28415772318840027f, -0.08773358911275864f, 0.13778568804264069f, 0.02368810586631298f, -0.4311002194881439f, 0.3687109053134918f, -0.08400426059961319f, 0.23786523938179016f, -0.03327935189008713f, -0.3230264186859131f, 0.391398161649704f, -0.03888867795467377f, 0.1595747172832489f, 0.36073845624923706f, -0.17014355957508087f, 0.09893707185983658f, 0.24941261112689972f, -0.08438370376825333f, -0.46400704979896545f, -0.4538154602050781f, -0.09116307646036148f, 0.24153855443000793f, -0.19692881405353546f, -0.17911076545715332f, 0.39344075322151184f, 0.23732711374759674f, -0.1523333489894867f, -0.14427845180034637f, -0.0011777309700846672f, -0.07470261305570602f, 0.30864936113357544f},
    {-0.028854085132479668f, -0.3911592662334442f, -0.32417386770248413f, 0.18523357808589935f, -0.3061976730823517f, -0.3074236214160919f, -0.19464895129203796f, 0.03315604478120804f, 0.2285984605550766f, -0.13839074969291687f, 0.0074238162487745285f, -0.05331016704440117f, -0.13985039293766022f, 0.2523752748966217f, 0.38495323061943054f, 0.2896996736526489f, 0.5573508143424988f, 0.11617736518383026f, 0.33334285020828247f, 0.20042705535888672f, 0.11120076477527618f, -0.13462041318416595f, 0.2205083668231964f, 0.07638923823833466f, 0.03871821239590645f, -0.363258421421051f, -0.17498242855072021f, 0.19328108429908752f, -0.25574246048927307f, -0.12758085131645203f, -0.5176877975463867f, 0.3313578963279724f},
    {-0.5442748665809631f, 0.15724405646324158f, 0.02317911759018898f, 0.36525386571884155f, 0.13854147493839264f, 0.010857431218028069f, 0.06617393344640732f, -0.23920400440692902f, 0.2559036314487457f, -0.1704820692539215f, 0.3292050361633301f, -0.2193622887134552f, 0.42229101061820984f, 0.14998044073581696f, 0.08964838832616806f, -0.09611193835735321f, -0.06673078238964081f, -0.26040634512901306f, 0.37631672620773315f, 0.12868817150592804f, 0.09439776837825775f, -0.20949263870716095f, -0.09216953814029694f, 0.15982016921043396f, 0.16216325759887695f, -0.05549883469939232f, -0.193642258644104f, -0.5042877197265625f, -0.43911808729171753f, -0.21224969625473022f, 0.3683723509311676f, 0.177229642868042f},
    {-0.6014662384986877f, 0.2834760844707489f, 0.23222723603248596f, 0.15576677024364471f, 0.1074262410402298f, 0.013204800896346569f, -0.02597842738032341f, 0.14632394909858704f, -0.15009929239749908f, 0.1456446796655655f, -0.08614765107631683f, -0.14305108785629272f, -0.11018852889537811f, -0.49303919076919556f, 0.2931457459926605f, 0.174320787191391f, 0.1690523624420166f, 0.019134337082505226f, -0.21678142249584198f, 0.39786025881767273f, 0.29832401871681213f, -0.21188493072986603f, 0.2766317129135132f, -0.02337826043367386f, 0.04252484440803528f, -0.19686441123485565f, 0.22685962915420532f, 0.42323732376098633f, 0.25639453530311584f, 0.2583971321582794f, 0.3352949023246765f, 0.19520053267478943f},
    {-0.02462771348655224f, 0.20582474768161774f, 0.023651333525776863f, 0.19272635877132416f, 0.008252190425992012f, 0.35473355650901794f, 0.1340070366859436f, 0.1163177564740181f, 0.30256325006484985f, 0.21232861280441284f, -0.03538907691836357f, 0.27899298071861267f, 0.1901044398546219f, -0.30776941776275635f, 0.17685917019844055f, 0.13992276787757874f, -0.0009276645141653717f, -0.02849840745329857f, -0.39558303356170654f, 0.04975889250636101f, -0.4117656350135803f, 0.12979961931705475f, -0.459722101688385f, 0.2641433775424957f, -0.1547008752822876f, -0.21897856891155243f, -0.2527371346950531f, 0.41244059801101685f, -0.6341552734375f, -0.30493414402008057f, -0.1673198938369751f, 0.1036340743303299f},
    {0.2647198736667633f, 0.21539545059204102f, 0.22608493268489838f, 0.23000304400920868f, 0.08706235885620117f, 0.09952564537525177f, -0.4326903223991394f, -0.7598865032196045f, 0.3257558345794678f, 0.014782259240746498f, 0.012597998604178429f, 0.2657264769077301f, -0.24555790424346924f, 0.3753827214241028f, 0.2232474982738495f, 0.32027530670166016f, -0.07788659632205963f, 0.014187665656208992f, -0.06919758766889572f, 0.034225042909383774f, -0.028021303936839104f, -0.2323245108127594f, -0.19766755402088165f, 0.3390282392501831f, -0.2310751974582672f, 0.10722878575325012f, 0.25431424379348755f, 0.10060825943946838f, 0.2582130432128906f, -0.24095715582370758f, 0.1354929357767105f, 0.4160480499267578f},
    {-0.2805689573287964f, -0.010803714394569397f, 0.1327519714832306f, 0.2692781090736389f, 0.207854226231575f, 0.1411471962928772f, -0.1742376834154129f, -0.08752330392599106f, -0.11142100393772125f, 0.44913822412490845f, -0.1217956617474556f, 0.07710525393486023f, 0.10755835473537445f, -0.05247683823108673f, 0.1338941752910614f, 0.33803677558898926f, -0.3293973505496979f, 0.09978780150413513f, 0.2847733497619629f, -0.331294983625412f, 0.37249645590782166f, -0.31092432141304016f, -0.18455415964126587f, -0.4705911874771118f, 0.053952377289533615f, 0.053812939673662186f, 0.19040502607822418f, -0.020318852737545967f, -0.10843299329280853f, -0.3911278545856476f, -0.6229499578475952f, -0.24336650967597961f},
    {0.033882759511470795f, -0.17983704805374146f, -0.5559937357902527f, 0.024620510637760162f, 0.18233130872249603f, 0.24931110441684723f, 0.15075482428073883f, 0.0809478908777237f, 0.12526538968086243f, -0.07939215749502182f, -0.014712466858327389f, -0.16310541331768036f, -0.25114789605140686f, 0.15293237566947937f, -0.3335997462272644f, -0.5715067982673645f, 0.09346023201942444f, -0.3115890324115753f, -0.26263314485549927f, 0.17057307064533234f, 0.29025986790657043f, -0.4802524149417877f, -0.20456911623477936f, -0.44890397787094116f, -0.11294780671596527f, 0.29274556040763855f, 0.06131015717983246f, 0.3954939544200897f, -0.02896646410226822f, -0.10916772484779358f, 0.10530699789524078f, 0.18050959706306458f},
    {-0.3845687508583069f, 0.28132522106170654f, -0.2160702347755432f, -0.14577773213386536f, -0.14221754670143127f, 0.4115491211414337f, -0.04504578188061714f, 0.06820548325777054f, 0.028654033318161964f, -0.3348551094532013f, 0.2557936906814575f, 0.5248309969902039f, -0.1745496690273285f, 0.17887166142463684f, -0.002120805671438575f, 0.12207071483135223f, -0.3689267635345459f, 0.0779649019241333f, 0.5405691266059875f, 0.10453740507364273f, 0.12251821905374527f, 0.23910363018512726f, -0.038691796362400055f, 0.09615621715784073f, -0.28839558362960815f, 0.09009268134832382f, 0.17153047025203705f, 0.2548104226589203f, -0.22682493925094604f, 0.45196884870529175f, -0.2116437554359436f, 0.10950686782598495f},
    {-0.10847587138414383f, -0.20519529283046722f, 0.10490040481090546f, -0.06283164024353027f, -0.55225670337677f, -0.0468500554561615f, -0.058411091566085815f, -0.10907793790102005f, -0.19241644442081451f, -0.00664654141291976f, 0.0211202222853899f, 0.1715700328350067f, -0.36253032088279724f, 0.059953924268484116f, 0.11698439717292786f, 0.06468857079744339f, -0.0356082022190094f, -0.46362999081611633f, -0.45498570799827576f, -0.565552294254303f, 0.5006901025772095f, 0.210190087556839f, 0.1206994503736496f, -0.1977086067199707f, 0.07616644352674484f, -0.04486217349767685f, -0.22037477791309357f, 0.0572495311498642f, -0.3409101963043213f, -0.011117881163954735f, 0.43316274881362915f, -0.1322106570005417f},
    {0.03615286946296692f, -0.3224898874759674f, 0.134697824716568f, -0.14470122754573822f, 0.14128102362155914f, 0.25891533493995667f, 0.3201894462108612f, -0.5468178391456604f, 0.27100563049316406f, -0.21940641105175018f, 0.019805552437901497f, 0.1854386031627655f, 0.3693763017654419f, -0.1506495177745819f, 0.29921483993530273f, 0.17416222393512726f, -0.15004703402519226f, 0.5215044021606445f, 0.17405802011489868f, -0.32998397946357727f, 0.06818779557943344f, -0.22619815170764923f, -0.23141902685165405f, -0.25529852509498596f, 0.25238242745399475f, -0.17167459428310394f, -0.38266998529434204f, 0.17695894837379456f, 0.04821695014834404f, 0.42187294363975525f, 0.05307545140385628f, 0.4273846745491028f},
    {0.1260017603635788f, -0.11477025598287582f, -0.12119400501251221f, -0.3070489764213562f, 0.20871254801750183f, -0.015070678666234016f, 0.3453969657421112f, -0.0023429468274116516f, 0.20133939385414124f, -0.11431985348463058f, 0.10319113731384277f, -0.16394609212875366f, -0.21619467437267303f, -0.3774411380290985f, -0.16884663701057434f, 0.44351598620414734f, -0.135618656873703f, -0.34038245677948f, 0.0811302438378334f, 0.08565955609083176f, 0.1304599940776825f, 0.13610941171646118f, 0.63909912109375f, 0.20278295874595642f, 0.20163971185684204f, 0.6312335729598999f, -0.1355741173028946f, 0.22005054354667664f, 0.029847482219338417f, -0.44954073429107666f, 0.09636750817298889f, -0.23208940029144287f},
    {0.12876321375370026f, -0.43823984265327454f, -0.22394433617591858f, 0.14298872649669647f, -0.3450556993484497f, 0.06326009333133698f, 0.1967044621706009f, 0.3186872601509094f, -0.2242298126220703f, -0.04804449528455734f, -0.05060454457998276f, -0.3058376610279083f, -0.18279114365577698f, -0.24396997690200806f, 0.6090975403785706f, 0.2588941752910614f, -0.39112427830696106f, -0.06362191587686539f, -0.10385387390851974f, 0.30652672052383423f, -0.08905525505542755f, 0.050490107387304306f, -0.4030287265777588f, -0.10614008456468582f, -0.2269182652235031f, 0.4529147744178772f, 0.13276103138923645f, -0.38861727714538574f, 0.12388771772384644f, 0.009990319609642029f, 0.21614626049995422f, 0.06463083624839783f},
    {-0.013508904725313187f, -0.3958449363708496f, 0.4905489981174469f, -0.043772656470537186f, 0.43670952320098877f, 0.2874079942703247f, -0.00872777309268713f, 0.17437802255153656f, 0.004193255677819252f, 0.13717558979988098f, -0.07499298453330994f, 0.3909434974193573f, 0.3083612024784088f, 0.7109271287918091f, 0.3602944612503052f, 0.21067863702774048f, 0.1721133440732956f, -0.09913523495197296f, -0.022801056504249573f, 0.19232547283172607f, -0.1501089334487915f, -0.2925075590610504f, 0.20725443959236145f, -0.01282731257379055f, -0.17398904263973236f, 0.03564886748790741f, 0.07607733458280563f, -0.005814902018755674f, -0.32811373472213745f, 0.3023432195186615f, 0.09769389778375626f, -0.21141459047794342f},
    {0.2844322919845581f, 0.4112901985645294f, 0.20193889737129211f, 0.13912466168403625f, -0.4382047951221466f, 0.16552896797657013f, 0.49956971406936646f, 0.030633945018053055f, -0.01927570439875126f, -0.05696661397814751f, -0.36426448822021484f, -0.4164677560329437f, 0.07488000392913818f, 0.2975464165210724f, 0.10346332937479019f, -0.06365808099508286f, -0.24513764679431915f, -0.6624778509140015f, 0.21008971333503723f, 0.04388413578271866f, -0.1407657265663147f, 0.07704760134220123f, 0.14707624912261963f, -0.22129841148853302f, 0.2193203866481781f, -0.18220511078834534f, 0.044200681149959564f, 0.29639729857444763f, 0.24871401488780975f, 0.032629549503326416f, -0.1566723734140396f, 0.04633970186114311f},
    {-0.5379692316055298f, 0.04111764580011368f, -0.20027592778205872f, -0.14511524140834808f, -0.026921670883893967f, 0.11773823946714401f, 0.23219546675682068f, -0.2485407590866089f, 0.1455937772989273f, 0.32520583271980286f, 0.03346741944551468f, 0.016829557716846466f, 0.16906768083572388f, 0.6434634923934937f, 0.21732698380947113f, -0.027989232912659645f, 0.06485074758529663f, 0.2831241190433502f, -0.37130481004714966f, 0.2262086719274521f, 0.23845265805721283f, 0.32158052921295166f, -0.23152342438697815f, 0.34492942690849304f, 0.3056434392929077f, 0.13716818392276764f, -0.2648875117301941f, 0.013429587706923485f, 0.3758411109447479f, -0.001277485745958984f, -0.3228766620159149f, -0.14983947575092316f},
    {-0.23062752187252045f, 0.060961633920669556f, 0.23760278522968292f, -0.19994156062602997f, 0.12003479897975922f, 0.2861439883708954f, -0.0067674838937819f, -0.06649215519428253f, 0.36083900928497314f, -0.2175479233264923f, 0.19333599507808685f, 0.07135018706321716f, -0.36104512214660645f, -0.057142630219459534f, 0.6328306794166565f, -0.393602579832077f, 0.2263363003730774f, 0.04069913178682327f, 0.26302197575569153f, -0.2122437208890915f, -0.2718038260936737f, -0.4048120379447937f, -0.12169419974088669f, 0.15709173679351807f, -0.21521101891994476f, -0.1989481896162033f, -0.3552163541316986f, 0.024646664038300514f, 0.2957842946052551f, -0.10104503482580185f, -0.1904260367155075f, -0.5192893743515015f},
    {-0.36280474066734314f, -0.18881158530712128f, -0.2000005841255188f, -0.39350441098213196f, 0.12363935261964798f, -0.14033940434455872f, -0.3676561415195465f, -0.39577582478523254f, 0.39609840512275696f, -0.4953387975692749f, -0.4272949993610382f, -0.1438024938106537f, 0.4346010684967041f, -0.02573615498840809f, 0.15529747307300568f, 0.17991438508033752f, -0.05772140622138977f, -0.18361230194568634f, -0.1489773392677307f, -0.004364685155451298f, -0.13242915272712708f, 0.10486984997987747f, -0.23066961765289307f, -0.07051165401935577f, -0.13080935180187225f, -0.2558845579624176f, 0.46568378806114197f, 0.09832066297531128f, -0.09361191838979721f, 0.06981457024812698f, -0.0765216276049614f, -0.35391247272491455f},
    {-0.05953321233391762f, -0.16397880017757416f, 0.07765151560306549f, -0.13132980465888977f, -0.05957508087158203f, 0.27751731872558594f, 0.004108745604753494f, 0.4176177680492401f, 0.24600692093372345f, 0.2371673732995987f, 0.35411742329597473f, -0.376131147146225f, 0.3180347979068756f, -0.031103309243917465f, -0.07802513241767883f, 0.07627018541097641f, 0.3508060574531555f, -0.18363989889621735f, 0.0776134580373764f, -0.5698742270469666f, 0.14341983199119568f, 0.38581106066703796f, 0.009376882575452328f, -0.008420679718255997f, -0.4423212707042694f, 0.08293391019105911f, 0.3126513361930847f, 0.03247391805052757f, 0.344829797744751f, -0.15973544120788574f, 0.10600244998931885f, 0.38715860247612f},
    {-0.3128078579902649f, -0.20937523245811462f, 0.18499213457107544f, 0.0871262177824974f, 0.003696766449138522f, 0.14052096009254456f, 0.2354254126548767f, -0.2988216280937195f, -0.5963276028633118f, -0.354880690574646f, 0.5303390026092529f, -0.16255146265029907f, -0.279396653175354f, -0.04685259237885475f, -0.34416136145591736f, 0.2271975576877594f, 0.2094307392835617f, -0.28627026081085205f, -0.30651676654815674f, -0.016504164785146713f, -0.43964883685112f, -0.007144267670810223f, -0.04337847977876663f, -0.09758739173412323f, 0.08005622029304504f, -0.0158417709171772f, 0.1711769700050354f, -0.09952535480260849f, 0.07630904763936996f, -0.011216406710445881f, -0.3849557638168335f, 0.09203004091978073f},
    {-0.08293837308883667f, 0.17732681334018707f, 0.18350479006767273f, 0.1428588330745697f, -0.30626407265663147f, 0.06666095554828644f, -0.3696249723434448f, 0.2476116567850113f, 0.04683385789394379f, -0.2845202684402466f, -0.22993870079517365f, -0.455020934343338f, 0.11082568019628525f, -0.016343558207154274f, -0.371206670999527f, 0.16261696815490723f, -0.09928914159536362f, -0.00840539950877428f, -0.2925712466239929f, -0.15632764995098114f, 0.08541077375411987f, -0.36733531951904297f, 0.1235174611210823f, 0.2142985314130783f, -0.2615632116794586f, 0.5178313255310059f, -0.5326464176177979f, -0.03644486144185066f, 0.0236077681183815f, 0.3523530066013336f, -0.2670988142490387f, 0.012950974516570568f},
    {-0.24839189648628235f, -0.31255173683166504f, -0.3143278956413269f, 0.03996354341506958f, -0.17538419365882874f, 0.2509707510471344f, 0.13877713680267334f, -0.17646992206573486f, 0.12232332676649094f, 0.28653931617736816f, -0.38394367694854736f, 0.6636640429496765f, 0.16856873035430908f, -0.19828693568706512f, -0.16347073018550873f, 0.030071131885051727f, -0.017842788249254227f, -0.3393469750881195f, 0.11889678984880447f, -0.042263418436050415f, -0.04067261517047882f, -0.4113767147064209f, 0.1025894358754158f, 0.44877275824546814f, -0.15475979447364807f, -0.3591143488883972f, -0.02683136612176895f, -0.40285253524780273f, 0.33997082710266113f, 0.09313923120498657f, -0.11519408971071243f, 0.09165491908788681f},
    {0.0781811848282814f, -0.08397487550973892f, 0.3510136604309082f, 0.2822868525981903f, -0.29734522104263306f, -0.14182567596435547f, 0.02547878585755825f, -0.4187001883983612f, 0.2876625955104828f, 0.1703868955373764f, 0.10191059112548828f, 0.3182394802570343f, 0.25757884979248047f, -0.35495343804359436f, 0.009968756698071957f, -0.1978827714920044f, 0.5228158831596375f, -0.20447973906993866f, 0.20005269348621368f, 0.3274476230144501f, 0.14217105507850647f, 0.21396486461162567f, -0.21604585647583008f, -0.21723975241184235f, -0.07706299424171448f, 0.4795982837677002f, 0.06500716507434845f, 0.01062444131821394f, -0.03832877799868584f, 0.3297840654850006f, -0.20848627388477325f, -0.2502320110797882f},
    {0.16477860510349274f, 0.6103381514549255f, -0.4178442656993866f, -0.34101957082748413f, 0.06113547086715698f, -0.0033730275463312864f, 0.16861511766910553f, -0.06313809007406235f, -0.3279801905155182f, 0.17848145961761475f, -0.10726885497570038f, -0.22014853358268738f, -0.16312798857688904f, 0.015189092606306076f, -0.10144303739070892f, 0.5459688305854797f, 0.5422064065933228f, -0.18202680349349976f, 0.14569735527038574f, -0.03630420193076134f, 0.055503688752651215f, -0.06223892420530319f, -0.2779782712459564f, -0.2855519950389862f, -0.2530715763568878f, 0.04065648466348648f, -0.2936767041683197f, -0.21839185059070587f, -0.02333827316761017f, 0.12682439386844635f, 0.2898281514644623f, -0.17865179479122162f}
};

const float layer2_b[32] = {0.0077737499959766865f, -0.014320287853479385f, 0.00019305208115838468f, 0.002417453797534108f, 0.011925722472369671f, 0.02240898460149765f, 0.02072652243077755f, 0.04497184231877327f, -0.016733357682824135f, -0.0051393527537584305f, -0.004377707839012146f, -0.02341373823583126f, 0.006435583345592022f, -0.002739568706601858f, -0.02083222195506096f, -0.03140551596879959f, 0.004808500874787569f, 0.0017701191827654839f, -0.00441436842083931f, 0.0010490872664377093f, 0.0008284038631245494f, -0.0015526041388511658f, -0.010306081734597683f, 0.0006308152223937213f, 0.00811771210283041f, 0.0042976634576916695f, -0.0035859327763319016f, -0.0008464514976367354f, 0.002076126402243972f, -0.011373711749911308f, 0.005568684544414282f, -0.024843983352184296f};

const float output_w[1][32] = {
    {0.12558428943157196f, -0.100985087454319f, 0.06634938716888428f, -0.16058285534381866f, 0.11846345663070679f, -0.04814722761511803f, -0.1191391795873642f, -0.052516475319862366f, -0.07634756714105606f, -0.11056344211101532f, -0.08014892786741257f, 0.014253945089876652f, -0.0790855884552002f, -0.13060204684734344f, -0.06215307489037514f, 0.05705738440155983f, -0.0617157481610775f, 0.08592839539051056f, -0.11448391526937485f, 0.09780962020158768f, 0.15368030965328217f, -0.08597387373447418f, 0.08677610009908676f, -0.13838507235050201f, -0.16921542584896088f, -0.0954090803861618f, 0.08931930363178253f, 0.02741033025085926f, 0.05514083057641983f, -0.11416839063167572f, -0.03551596403121948f, 0.07370876520872116f}
};

const float output_b[1] = {0.009894360788166523f};

