// Pesos del modelo Bala2 generados automaticamente

const float layer1_w[32][4] = {
    {-0.005402355454862118f, -0.11224351078271866f, -0.1828555166721344f, -0.0022059292532503605f},
    {0.4733451008796692f, 0.30999600887298584f, -0.00011263932537985966f, 0.18710601329803467f},
    {0.32375553250312805f, -0.28379306197166443f, -0.20644152164459229f, -0.20975908637046814f},
    {0.10051491111516953f, -0.2628384232521057f, 0.20849299430847168f, -0.0527656190097332f},
    {0.015840979292988777f, -0.24123810231685638f, 0.19927281141281128f, -0.4401932954788208f},
    {0.2144414186477661f, 0.028383878991007805f, -0.3201289772987366f, -0.34146761894226074f},
    {-0.08730340749025345f, 0.5090355277061462f, 0.015188205987215042f, 0.4461643397808075f},
    {0.36944690346717834f, 0.4523877501487732f, -0.5522714853286743f, -0.5006347298622131f},
    {0.25004667043685913f, 0.1882224678993225f, 0.17414377629756927f, -0.4874926209449768f},
    {-0.13637152314186096f, -0.15558694303035736f, 0.42051154375076294f, -0.11160843819379807f},
    {0.29880067706108093f, -0.3025820553302765f, 0.20403611660003662f, -0.018528377637267113f},
    {0.13708603382110596f, 0.2756703495979309f, -0.20437294244766235f, 0.09721175581216812f},
    {-0.22343234717845917f, -0.309879869222641f, 0.03214271739125252f, -0.34150490164756775f},
    {-0.4675874710083008f, 0.6456916928291321f, 0.27260538935661316f, 0.1452387124300003f},
    {-0.2260868102312088f, 0.5401058197021484f, -0.010769710876047611f, 0.023109590634703636f},
    {0.2508280575275421f, -0.05833829939365387f, 0.26826635003089905f, -0.07392166554927826f},
    {-0.19114843010902405f, 0.3916294276714325f, -0.3312225341796875f, 0.2055831253528595f},
    {0.4146219789981842f, -0.03467928245663643f, 0.4332483112812042f, 0.04579934850335121f},
    {-0.2529118061065674f, 0.023110784590244293f, 0.047515757381916046f, -0.4098118245601654f},
    {-0.017270680516958237f, 0.07696037739515305f, -0.044545531272888184f, 0.1462467461824417f},
    {-0.07453092932701111f, 0.5977604985237122f, -0.32515567541122437f, 0.06929394602775574f},
    {0.29254093766212463f, 0.1406673938035965f, -0.15616856515407562f, 0.23448476195335388f},
    {0.327297180891037f, 0.184987410902977f, -0.04734111949801445f, 0.4591263234615326f},
    {0.03329543024301529f, 0.569457471370697f, -0.10563421249389648f, 0.3956163227558136f},
    {0.2072911262512207f, 0.27751070261001587f, 0.49556460976600647f, 0.14613990485668182f},
    {-0.07257445901632309f, -0.41753023862838745f, -0.45922166109085083f, 0.014946234412491322f},
    {0.25070062279701233f, 0.3637927770614624f, -0.1408887356519699f, 0.0169705580919981f},
    {0.25373518466949463f, -0.32251691818237305f, -0.2306397408246994f, 0.09797073155641556f},
    {0.41882988810539246f, 0.5705659985542297f, 0.16947944462299347f, -0.19035054743289948f},
    {0.03257903829216957f, -0.05236794427037239f, 0.09258972108364105f, -0.05656416714191437f},
    {-0.22274954617023468f, -0.34360820055007935f, -0.09683294594287872f, -0.2732575237751007f},
    {-0.221381276845932f, 0.47293350100517273f, -0.46925315260887146f, 0.07973778247833252f}
};

const float layer1_b[32] = {-0.022575227543711662f, -0.004647218622267246f, -0.007169646210968494f, -0.023274317383766174f, -0.029600026085972786f, -0.018269700929522514f, 0.029345348477363586f, -0.03478757292032242f, -0.03277429938316345f, 0.0039299000054597855f, -0.01921791024506092f, -0.007119056768715382f, -0.021796103566884995f, 0.01832756958901882f, 0.023719262331724167f, 0.012548822909593582f, 0.02571861818432808f, 0.041059963405132294f, -0.025682972744107246f, -0.0021774296183139086f, -0.0036771316081285477f, 0.008944686502218246f, 0.03660545498132706f, 0.02655736170709133f, 0.007878643460571766f, -0.002828731667250395f, -0.008838151581585407f, 0.016201727092266083f, -0.0024721852969378233f, -0.013373305089771748f, -0.022167090326547623f, -0.009785532020032406f};

const float layer2_w[32][32] = {
    {0.5224199295043945f, 0.2930360436439514f, 0.06933016330003738f, 0.32755598425865173f, -0.054261986166238785f, 0.2538166046142578f, 0.2172187864780426f, -0.026615694165229797f, -0.06404005736112595f, -0.40068960189819336f, 0.12508220970630646f, -0.18069474399089813f, 0.1584707647562027f, 0.2551380395889282f, -0.17125438153743744f, -0.19224855303764343f, 0.01104277279227972f, -0.11405137181282043f, -0.40090882778167725f, -0.26497942209243774f, 0.03303337097167969f, 0.3299628794193268f, 0.232179656624794f, 0.1600264459848404f, -0.25218871235847473f, 0.09595633298158646f, -0.526517391204834f, 0.11659030616283417f, -0.05563383176922798f, -0.2628372609615326f, -0.251444935798645f, 0.07962168008089066f},
    {0.3941022753715515f, -0.27141422033309937f, -0.18897664546966553f, 0.2877815067768097f, 0.2481420487165451f, 0.06210971251130104f, -0.3938637971878052f, -0.3139110803604126f, 0.2975432574748993f, -0.08422879874706268f, 0.378749817609787f, -0.08668114244937897f, -0.15780682861804962f, 0.185581237077713f, -0.5436006188392639f, -0.0028879211749881506f, 0.06783819943666458f, 0.0013204325223341584f, 0.2958064377307892f, 0.18711189925670624f, -0.4594021141529083f, -0.020356692373752594f, -0.15619657933712006f, -0.30624452233314514f, 0.1161017045378685f, -0.3998327851295471f, 0.15473347902297974f, -0.05752449855208397f, -0.49005135893821716f, -0.12533985078334808f, -0.10004836320877075f, 0.04568151757121086f},
    {0.09167888760566711f, 0.09695245325565338f, -0.13804607093334198f, 0.38648146390914917f, -0.22750703990459442f, -0.13318273425102234f, 0.14583660662174225f, -0.27724313735961914f, -0.1472831666469574f, 0.16572627425193787f, -0.011325890198349953f, 0.4774215519428253f, 0.10271918773651123f, 0.44416406750679016f, 0.3812623918056488f, -0.5046069622039795f, -0.14455004036426544f, 0.41303473711013794f, 0.11038891226053238f, -0.27788469195365906f, -0.08421378582715988f, -0.279864102602005f, 0.22559408843517303f, -0.060058072209358215f, 0.4412460923194885f, 0.027393000200390816f, 0.08755876123905182f, -0.3425939679145813f, 0.31134694814682007f, -0.10062912851572037f, -0.09733773022890091f, 0.2460963875055313f},
    {0.2985782325267792f, -0.12040288001298904f, 0.11708798259496689f, -0.23916558921337128f, 0.0019827312789857388f, 0.09717599302530289f, -0.2501837909221649f, -0.022988218814134598f, 0.32414841651916504f, -0.1695941984653473f, -0.01583840511739254f, -0.09550093859434128f, 0.661576509475708f, -0.0953051969408989f, 0.15381185710430145f, 0.0780169889330864f, -0.5602325201034546f, 0.045961420983076096f, -0.046351224184036255f, 0.11243491619825363f, 0.16012760996818542f, 0.0350935272872448f, -0.23668889701366425f, 0.32908469438552856f, 0.10902199149131775f, -0.44370219111442566f, -0.24157799780368805f, -0.28704753518104553f, 0.15180952847003937f, 0.012996535748243332f, 0.1736728399991989f, 0.33309030532836914f},
    {0.2925645709037781f, 0.15380817651748657f, -0.16533300280570984f, -0.23928166925907135f, -0.1464429795742035f, 0.1179063618183136f, 0.40737566351890564f, 0.22251001000404358f, 0.3598009943962097f, -0.09968961775302887f, 0.18281039595603943f, 0.25798845291137695f, -0.45700913667678833f, 0.0710647702217102f, 0.751976728439331f, 0.14988555014133453f, -0.10245136171579361f, 0.18338531255722046f, -0.13162773847579956f, 0.496366024017334f, -0.16773825883865356f, 0.16505999863147736f, -0.19236572086811066f, -0.20010164380073547f, 0.19352518022060394f, -0.07496380060911179f, -0.08871136605739594f, 0.2949751019477844f, 0.045196618884801865f, -0.1097676083445549f, -0.042982932180166245f, 0.14356213808059692f},
    {0.001540138735435903f, 0.2526913583278656f, -0.12222649157047272f, 0.3011209964752197f, -0.11080650985240936f, -0.03779367357492447f, 0.10343543440103531f, 0.2152133285999298f, -0.2912462055683136f, 0.4454825520515442f, -0.053453221917152405f, -0.13460472226142883f, 0.14846235513687134f, 0.036385729908943176f, 0.30526798963546753f, 0.017485393211245537f, 0.15910230576992035f, -0.486179381608963f, -0.17599913477897644f, -0.14758600294589996f, 0.20675918459892273f, 0.08621425181627274f, 0.07015377283096313f, -0.21472510695457458f, 0.25355395674705505f, -0.4925277531147003f, 0.11778145283460617f, 0.397123783826828f, -0.26512858271598816f, 0.26821258664131165f, 0.07657098025083542f, 0.6537847518920898f},
    {0.5412859320640564f, 0.2837204933166504f, 0.07245135307312012f, 0.08189614862203598f, 0.5864239931106567f, 0.12585589289665222f, -0.07889120280742645f, 0.21768149733543396f, -0.36680570244789124f, 0.41110122203826904f, -0.2446010708808899f, 0.24385206401348114f, -0.11200609058141708f, -0.01222512312233448f, 0.02716926857829094f, 0.40421929955482483f, -0.12406976521015167f, 0.3638439178466797f, 0.10388211160898209f, 0.04416816681623459f, -0.15007302165031433f, -0.09037615358829498f, 0.18542681634426117f, 0.15571698546409607f, -0.36826109886169434f, -0.18164394795894623f, -0.06763263791799545f, -0.22850023210048676f, -0.1254393458366394f, 0.31998035311698914f, -0.11094791442155838f, -0.2241445630788803f},
    {0.5476659536361694f, 0.029545191675424576f, -0.23439347743988037f, -0.013703789561986923f, -0.3856334984302521f, 0.0021822594571858644f, 0.18702103197574615f, -0.04076990857720375f, -0.1953946053981781f, -0.28269997239112854f, -0.30786746740341187f, -0.17600980401039124f, -0.11941356956958771f, 0.45422863960266113f, 0.11144851893186569f, -0.18807834386825562f, 0.0744970440864563f, -0.07793238759040833f, 0.20603027939796448f, 0.0880054160952568f, 0.36940333247184753f, 0.06047897785902023f, -0.186603844165802f, 0.031207183375954628f, -0.12227849662303925f, 0.0848267674446106f, 0.3611506521701813f, 0.0069595444947481155f, -0.058202631771564484f, 0.21982522308826447f, 0.7350354194641113f, -0.2314816266298294f},
    {-0.011178368702530861f, -0.09542205929756165f, 0.20995278656482697f, 0.18369798362255096f, -0.18178382515907288f, 0.06775481253862381f, -0.3250080645084381f, 0.020661814138293266f, -0.17734619975090027f, 0.030681192874908447f, -0.44018635153770447f, 0.14790421724319458f, -0.26254746317863464f, -0.3224368095397949f, 0.12407608330249786f, -0.37648889422416687f, -0.5555052161216736f, -0.219288632273674f, 0.05304630845785141f, -0.27085429430007935f, -0.19151730835437775f, -0.02393331006169319f, -0.5360662937164307f, -0.041564781218767166f, -0.120345339179039f, -0.17502084374427795f, -0.13445259630680084f, 0.16291166841983795f, -0.39942467212677f, -0.2758561670780182f, -0.24963513016700745f, -0.43100377917289734f},
    {0.18565483391284943f, -0.2830873429775238f, -0.004199419170618057f, 0.1411367654800415f, 0.12189444899559021f, -0.7164596319198608f, 0.11739124357700348f, 0.19543951749801636f, 0.2357313185930252f, -0.009000013582408428f, 0.0735703632235527f, -0.3013334572315216f, -0.11864394694566727f, 0.1531280130147934f, 0.025694845244288445f, 0.39681288599967957f, -0.2782491445541382f, -0.12274303287267685f, 0.4069133400917053f, -0.5134033560752869f, -0.1726922243833542f, -0.1510755866765976f, 0.14794695377349854f, 0.05070185661315918f, -0.06789015233516693f, -0.11693256348371506f, -0.19987435638904572f, 0.40096062421798706f, 0.32586851716041565f, -0.14367811381816864f, -0.05594053491950035f, -0.23894545435905457f},
    {-0.06536360085010529f, 0.5331524610519409f, -0.05251080542802811f, 0.11839154362678528f, 0.33477091789245605f, -0.2495255172252655f, -0.0631389170885086f, -0.08405162394046783f, 0.012548181228339672f, -0.2922549545764923f, 0.1214778944849968f, -0.23836876451969147f, -0.044444818049669266f, -0.06456178426742554f, 0.36057552695274353f, -0.5315166711807251f, 0.1866125464439392f, -0.2734672725200653f, 0.2189234346151352f, 0.3900318145751953f, 0.06438073515892029f, -0.03330462425947189f, 0.0016357428394258022f, 0.5494791269302368f, 0.13888542354106903f, -0.2800695598125458f, 0.25700461864471436f, 0.0411616787314415f, 0.29050397872924805f, 0.2454952448606491f, -0.2804921567440033f, -0.17169828712940216f},
    {0.10950078070163727f, 0.15888364613056183f, 0.5646496415138245f, -0.39650189876556396f, -0.08574976027011871f, -0.14044934511184692f, -0.30336251854896545f, 0.12488693743944168f, -0.3778678774833679f, -0.08807176351547241f, 0.16095376014709473f, -0.03709586337208748f, -0.187149316072464f, 0.6343381404876709f, 0.19267500936985016f, 0.26592370867729187f, 0.08883601427078247f, -0.2700219452381134f, -0.21278230845928192f, 0.1329135000705719f, 0.2660348415374756f, -0.3494724631309509f, 0.04369993880391121f, 0.11318840831518173f, 0.43776988983154297f, 0.05582546070218086f, 0.14484690129756927f, -0.1618925929069519f, -0.14186492562294006f, -0.3664878308773041f, -0.14864876866340637f, 0.03947019949555397f},
    {-0.01823846437036991f, -0.05398571118712425f, -0.429778128862381f, 0.099469393491745f, -0.3216322958469391f, -0.08120403438806534f, -0.30907222628593445f, -0.11744743585586548f, 0.046675629913806915f, -0.03918975591659546f, -0.6568986177444458f, -0.16404318809509277f, -0.07318909466266632f, 0.04652462154626846f, 0.04655006155371666f, 0.21102431416511536f, 0.3383207619190216f, 0.47612619400024414f, -0.13328880071640015f, 0.2548883855342865f, 0.3909953534603119f, -0.275564581155777f, 0.21032807230949402f, 0.2742961347103119f, 0.19831214845180511f, -0.2886272668838501f, -0.14949822425842285f, 0.28201422095298767f, 0.02408948354423046f, -0.21020838618278503f, -0.18398989737033844f, 0.11058320850133896f},
    {-0.004451646935194731f, 0.4068823754787445f, -0.1615849882364273f, -0.023607999086380005f, 0.3320860266685486f, 0.30645424127578735f, 0.33678102493286133f, -0.1330566555261612f, 0.02918182872235775f, 0.4257352948188782f, 0.11568094044923782f, -0.198659285902977f, 0.19059762358665466f, -0.001788896624930203f, -0.2202368676662445f, 0.022027166560292244f, 0.0032112093176692724f, 0.13284094631671906f, 0.07658369839191437f, -0.0988876074552536f, 0.09208934754133224f, -0.334799200296402f, -0.5300070643424988f, 0.11931835114955902f, -0.044768743216991425f, 0.05117575451731682f, 0.18166804313659668f, 0.2837860882282257f, 0.12093118578195572f, -0.7341197729110718f, 0.1358679085969925f, -0.05948655679821968f},
    {0.35311245918273926f, 0.10877076536417007f, 0.21300168335437775f, -0.12236752361059189f, -0.14635540544986725f, -0.03056171163916588f, 0.17916032671928406f, -0.12289085239171982f, 0.3090183734893799f, 0.3162825107574463f, -0.3149260878562927f, 0.12143589556217194f, -0.10825004428625107f, -0.06497427821159363f, -0.3746156394481659f, 0.0725569799542427f, -0.017948489636182785f, -0.09711617976427078f, 0.10534612834453583f, -0.11527245491743088f, -0.004280771128833294f, 0.2748751640319824f, -0.20582987368106842f, 0.48728081583976746f, 0.6731957197189331f, 0.4111350178718567f, 0.14399214088916779f, 0.14560477435588837f, -0.019144082441926003f, 0.364334374666214f, -0.19269460439682007f, 0.18234026432037354f},
    {-0.3024524450302124f, -0.06031924486160278f, 0.17995478212833405f, 0.14840354025363922f, 0.10884205251932144f, 0.290420264005661f, 0.017978517338633537f, 0.09692598134279251f, -0.05361839383840561f, 0.2848774790763855f, -0.028581440448760986f, -0.4979495108127594f, -0.1726073920726776f, 0.0814925879240036f, -0.16344796121120453f, -0.20428992807865143f, -0.37775719165802f, 0.018130073323845863f, 0.4781178832054138f, 0.3913339078426361f, -0.3435179889202118f, -0.13682550191879272f, 0.2960323095321655f, 0.08207745850086212f, 0.14828388392925262f, 0.20450124144554138f, -0.7097623348236084f, 0.02706819958984852f, -0.25800588726997375f, -0.030169788748025894f, 0.42133164405822754f, -0.017744675278663635f},
    {-0.12560820579528809f, 0.24705852568149567f, 0.37805768847465515f, 0.03818247467279434f, -0.0023631725925952196f, 0.5375568270683289f, 0.06072221323847771f, 0.18002858757972717f, 0.337164968252182f, -0.39706817269325256f, -0.05168737471103668f, -0.14017954468727112f, -0.40037137269973755f, 0.008907372131943703f, 0.05065835267305374f, 0.01208620797842741f, 0.3315093219280243f, 0.25502529740333557f, 0.2941170632839203f, -0.5543047189712524f, 0.2623594105243683f, -0.21219706535339355f, -0.10175380855798721f, -0.15696299076080322f, 0.16213898360729218f, -0.2756107449531555f, -0.09294940531253815f, -0.10689577460289001f, 0.06895095109939575f, 0.280413955450058f, -0.06288547068834305f, 0.11821886152029037f},
    {-0.2287711650133133f, 0.09022322297096252f, 0.014678552746772766f, -0.11597864329814911f, 0.26014795899391174f, 0.03447561711072922f, -0.21676130592823029f, -0.26634666323661804f, 0.052999090403318405f, -0.1213986948132515f, 0.14256621897220612f, -0.04593845456838608f, 0.11273583769798279f, -0.008975443430244923f, -0.04123456031084061f, 0.12696996331214905f, -0.19850845634937286f, 0.23825131356716156f, -0.4894466698169708f, -0.48038992285728455f, -0.7063742876052856f, -0.26242783665657043f, 0.015583900734782219f, 0.18068617582321167f, 0.12292049825191498f, -0.1640045940876007f, -0.042000848799943924f, 0.33158648014068604f, -0.27276092767715454f, 0.29314297437667847f, 0.6141389608383179f, -0.3936132788658142f},
    {0.2646271884441376f, 0.07944418489933014f, -0.08493909984827042f, 0.43301284313201904f, 0.30329257249832153f, -0.15465538203716278f, -0.5863603353500366f, 0.26805466413497925f, 0.015208951197564602f, -0.10225974023342133f, 0.12052802741527557f, -0.09581711888313293f, -0.3780219852924347f, -0.44264838099479675f, -0.16649602353572845f, -0.09930551052093506f, -0.16337242722511292f, 0.027544578537344933f, -0.39424580335617065f, 0.027447668835520744f, 0.0654410570859909f, -0.19116513431072235f, -0.166709303855896f, -0.19303113222122192f, 0.11883996427059174f, 0.526282548904419f, -0.0906488224864006f, 0.028420379385352135f, 0.3072013258934021f, -0.016331033781170845f, 0.3592158257961273f, 0.24057912826538086f},
    {0.009217493236064911f, 0.24386951327323914f, -0.09392217546701431f, -0.38581371307373047f, 0.21434222161769867f, -0.4290269911289215f, 0.3074921667575836f, -0.17324960231781006f, -0.07341990619897842f, -0.04937228932976723f, 0.025012217462062836f, -0.34733983874320984f, -0.0971580371260643f, -0.10605143010616302f, -0.1872527003288269f, -0.23876483738422394f, -0.48448750376701355f, 0.38065412640571594f, -0.1322196125984192f, -0.032201189547777176f, 0.5494446754455566f, 0.02703995816409588f, 0.08534221351146698f, -0.5006759762763977f, 0.18441444635391235f, -0.08318336308002472f, 0.011742297559976578f, -0.08575952053070068f, -0.3094698190689087f, 0.16664496064186096f, -0.20344066619873047f, -0.014744233340024948f},
    {0.08239694684743881f, 0.2732175886631012f, -0.25742805004119873f, -0.23453068733215332f, -0.22737285494804382f, -0.10963813215494156f, 0.18508318066596985f, -0.4613748788833618f, -0.019014954566955566f, 0.15673810243606567f, -0.09180007874965668f, 0.11010093241930008f, -0.4446156620979309f, -0.23465199768543243f, -0.1413053572177887f, 0.16312912106513977f, 0.1557571440935135f, -0.516430675983429f, -0.15323898196220398f, -0.06042994558811188f, -0.014140298590064049f, -0.2060934603214264f, -0.015497361309826374f, -0.01735616661608219f, 0.01850392483174801f, -0.37655162811279297f, -0.4406977891921997f, -0.5368591547012329f, 0.3090954124927521f, -0.05215014889836311f, 0.17108142375946045f, -0.024114422500133514f},
    {-0.27245843410491943f, 0.36235344409942627f, 0.24397750198841095f, 0.028575865551829338f, -0.044801756739616394f, -0.3801441192626953f, -0.1292475461959839f, -0.4119749665260315f, 0.047112081199884415f, -0.049667391926050186f, 0.0017024645349010825f, 0.3019638657569885f, -0.34102603793144226f, 0.237614706158638f, 0.10560192167758942f, 0.1127082109451294f, -0.08240992575883865f, 0.12675578892230988f, 0.25452253222465515f, -0.015909021720290184f, 0.26365989446640015f, 0.34773358702659607f, -0.11745988577604294f, 0.25695282220840454f, -0.4966699779033661f, -0.017971541732549667f, 0.06908318400382996f, 0.04797815531492233f, -0.0780547708272934f, -0.10100354254245758f, 0.24268177151679993f, 0.7132983803749084f},
    {0.012516067363321781f, 0.18644274771213531f, 0.08160152286291122f, -0.1381414234638214f, 0.12607716023921967f, -0.08418027311563492f, 0.10735384374856949f, -0.0839313343167305f, 0.24907802045345306f, -0.16471876204013824f, -0.6810560822486877f, -0.29469916224479675f, 0.15464282035827637f, 0.2546530067920685f, -0.014383326284587383f, -0.0382436141371727f, -0.06215852126479149f, -0.23569335043430328f, -0.1515781283378601f, 0.13090860843658447f, -0.6059209704399109f, -0.38241061568260193f, -0.0512213334441185f, -0.37284037470817566f, -0.3050532341003418f, 0.2452489584684372f, 0.15128250420093536f, -0.08061408251523972f, 0.08240659534931183f, 0.11360753327608109f, -0.2144608497619629f, 0.34229373931884766f},
    {0.007519305218011141f, 0.24786365032196045f, -0.28186821937561035f, 0.1540408432483673f, 0.1502331793308258f, 0.16913369297981262f, -0.1600331813097f, -0.35732951760292053f, -0.11590777337551117f, -0.39355048537254333f, 0.0853819027543068f, 0.2319914549589157f, 0.40102052688598633f, -0.26820436120033264f, 0.15943209826946259f, 0.5114319324493408f, -0.1797415018081665f, -0.30147814750671387f, 0.5185970067977905f, -0.046346597373485565f, 0.044811345636844635f, -0.23987410962581635f, 0.009600482881069183f, -0.28414925932884216f, 0.1920829713344574f, 0.4667963683605194f, -0.26292717456817627f, 0.1447831094264984f, -0.2855919897556305f, 0.08525274693965912f, -0.031821366399526596f, -0.1748403161764145f},
    {0.02754097245633602f, 0.30331727862358093f, 0.6248485445976257f, 0.46492815017700195f, 0.0023652389645576477f, -0.3632079064846039f, 0.042230769991874695f, -0.01530385296791792f, 0.329324334859848f, 0.056542351841926575f, -0.20593735575675964f, -0.006303648464381695f, 0.3630460798740387f, -0.31405869126319885f, -0.03857184201478958f, 0.16280925273895264f, 0.25011447072029114f, 0.1483309268951416f, -0.021320223808288574f, 0.18857531249523163f, -0.18698859214782715f, 0.23145529627799988f, 0.07074935734272003f, -0.37578442692756653f, 0.1706165224313736f, -0.09102009981870651f, -0.0710553303360939f, -0.15553881227970123f, -0.1688510924577713f, -0.30942729115486145f, 0.37402355670928955f, -0.48437440395355225f},
    {-0.1490488201379776f, 0.21144980192184448f, -0.3170575797557831f, -0.11947561800479889f, 0.2507910132408142f, 0.17127884924411774f, -0.4054183065891266f, 0.03843594342470169f, 0.645980954170227f, 0.35970646142959595f, -0.12973366677761078f, 0.18853318691253662f, -0.05447414517402649f, 0.5094521045684814f, 0.09447681158781052f, -0.1428057998418808f, -0.12521682679653168f, -0.3213413655757904f, -0.1302354335784912f, -0.12076682597398758f, 0.3059406280517578f, 0.3424680531024933f, 0.31425562500953674f, -0.14350399374961853f, 0.028855254873633385f, 0.07021954655647278f, -0.04133177921175957f, -0.022244010120630264f, 0.02357136830687523f, -0.04552529752254486f, 0.031563691794872284f, -0.3597744405269623f},
    {-0.14451943337917328f, 0.6237500309944153f, -0.4476968050003052f, -0.26259559392929077f, -0.4262179136276245f, -0.10516960173845291f, -0.34139931201934814f, 0.5076516270637512f, -0.22634272277355194f, -0.10461050271987915f, 0.022899476811289787f, -0.2064281851053238f, 0.09056484699249268f, 0.10504738241434097f, -0.12717069685459137f, 0.10356283187866211f, 0.025147896260023117f, 0.22791822254657745f, 0.25089913606643677f, -0.14763042330741882f, -0.3652743399143219f, 0.47441837191581726f, -0.16623534262180328f, -0.05046681687235832f, 0.13784784078598022f, 0.03933684155344963f, 0.044013168662786484f, -0.2287251353263855f, 0.07350505888462067f, -0.12260139733552933f, -0.10463420301675797f, 0.07717907428741455f},
    {-0.2995407283306122f, -0.13971111178398132f, -0.36568278074264526f, 0.320232629776001f, 0.2516792118549347f, -0.29114070534706116f, 0.3389415442943573f, 0.27277520298957825f, 0.13683806359767914f, -0.12321383506059647f, -0.09396262466907501f, -0.022951051592826843f, -0.038477614521980286f, 0.33635783195495605f, 0.2512771487236023f, 0.12729763984680176f, 0.22157225012779236f, -0.013723759911954403f, -0.2250100076198578f, -0.04166354611515999f, 0.19579048454761505f, 0.018432162702083588f, -0.5400462746620178f, 0.34681016206741333f, 0.11450076103210449f, 0.1709209382534027f, -0.19194507598876953f, -0.547248125076294f, -0.48052605986595154f, 0.06492441892623901f, -0.08892279863357544f, 0.10314016789197922f},
    {0.1417110562324524f, 0.20251530408859253f, 0.12336689233779907f, 0.060793984681367874f, -0.5111957788467407f, -0.14981508255004883f, -0.2888055741786957f, 0.02006412111222744f, 0.40906763076782227f, 0.42790916562080383f, 0.49365827441215515f, -0.11627940088510513f, 0.23169568181037903f, -0.07625512033700943f, -0.058151233941316605f, -0.09968231618404388f, 0.05206403136253357f, 0.12839753925800323f, 0.007759342435747385f, 0.03774353861808777f, -0.04804912209510803f, -0.5697947144508362f, -0.19375336170196533f, -0.041472554206848145f, -0.4871785342693329f, 0.25154244899749756f, -0.29840561747550964f, 0.10654328018426895f, -0.30987003445625305f, 0.37478184700012207f, -0.12796448171138763f, -0.26438289880752563f},
    {-0.2481561005115509f, 0.2829684615135193f, -0.06742648780345917f, 0.1035301461815834f, -0.131089448928833f, -0.09889789670705795f, 0.2673426568508148f, 0.5056437849998474f, 0.0280972458422184f, -0.37257811427116394f, -0.08148922771215439f, 0.7196619510650635f, 0.03574357181787491f, 0.31072065234184265f, -0.6170601844787598f, -0.06019749119877815f, -0.2245025634765625f, -0.1188444197177887f, -0.06083770468831062f, 0.3676045835018158f, 0.23974595963954926f, -0.25801345705986023f, -0.041743163019418716f, 0.041071683168411255f, 0.06632740050554276f, -0.2607235312461853f, -0.004304295871406794f, 0.2510414123535156f, 0.09744886308908463f, 0.11053107678890228f, 0.02300013229250908f, 0.08922644704580307f},
    {-0.09263400733470917f, 0.17308101058006287f, -0.10393457114696503f, 0.3037692904472351f, -0.3511621654033661f, 0.21410439908504486f, 0.1993509829044342f, 0.06735831499099731f, 0.26766782999038696f, -0.09393145143985748f, -0.0011119239497929811f, -0.17420516908168793f, -0.23709343373775482f, -0.22575822472572327f, 0.0943688154220581f, 0.29539361596107483f, -0.4658260941505432f, -0.10634108632802963f, -0.14417755603790283f, -0.01860789768397808f, 0.15078334510326385f, -0.14710389077663422f, 0.5241268277168274f, 0.33879753947257996f, -0.08710883557796478f, -0.0017427168786525726f, 0.7260303497314453f, -0.3086290955543518f, -0.21930554509162903f, -0.1964505910873413f, -0.06924077868461609f, 0.14265593886375427f},
    {0.2790848910808563f, 0.049597449600696564f, -0.18758302927017212f, -0.519323468208313f, 0.08420960605144501f, -0.23836565017700195f, 0.10478755831718445f, 0.45078617334365845f, 0.16661645472049713f, -0.15679004788398743f, -0.11695703864097595f, 0.3672763407230377f, 0.02876858599483967f, -0.2976076602935791f, 0.08484233170747757f, -0.48903778195381165f, 0.37771904468536377f, -0.12784309685230255f, 0.22356891632080078f, -0.19348156452178955f, 0.09108272939920425f, -0.19631123542785645f, 0.37374645471572876f, 0.2341620773077011f, 0.0052265324629843235f, 0.05617467314004898f, 0.04954570159316063f, -0.07121538370847702f, -0.46524935960769653f, -0.36565691232681274f, 0.20007085800170898f, 0.3983440697193146f}
};

const float layer2_b[32] = {0.01323491707444191f, -0.0010298684937879443f, 0.004375003278255463f, -0.025355860590934753f, 0.002132560359314084f, -0.009770006872713566f, 0.006472988054156303f, -0.01333549153059721f, -0.0009295931668020785f, 0.003166035283356905f, 0.003268301021307707f, 0.002221805276349187f, 0.03419758006930351f, -0.002494982210919261f, -0.00041259254794567823f, 0.0014821661170572042f, -0.004636894911527634f, 0.022115007042884827f, -0.02595953829586506f, 0.0015524910995736718f, 0.00012055085244355723f, 0.007978457026183605f, 0.006896831560879946f, 0.003572276094928384f, 0.0003214483440387994f, 0.006330291740596294f, -0.02641046978533268f, -0.014527739025652409f, -0.005798213183879852f, -0.03457348793745041f, -0.009935598820447922f, -0.016774538904428482f};

const float output_w[1][32] = {
    {0.03353779390454292f, -0.07299111783504486f, 0.058800481259822845f, -0.03022713027894497f, 0.08292824029922485f, 0.07087297737598419f, -0.05247224122285843f, 0.07246183604001999f, -0.07571055740118027f, -0.055590853095054626f, 0.07510421425104141f, 0.06361190974712372f, 0.06016160547733307f, -0.03934221714735031f, 0.056101273745298386f, -0.0876605361700058f, -0.003266355022788048f, -0.2091837227344513f, -0.05966479331254959f, 0.021479714661836624f, 0.05001125857234001f, 0.0605371929705143f, -0.0412479005753994f, -0.08303813636302948f, -0.0783052071928978f, -0.01632116176187992f, 0.08421802520751953f, 0.09277249872684479f, -0.07496736943721771f, 0.15394869446754456f, 0.11040281504392624f, 0.12947648763656616f}
};

const float output_b[1] = {-0.02290359139442444f};

