// Pesos del modelo Bala2 generados automaticamente

const float layer1_w[32][4] = {
    {-0.34614768624305725f, 0.32538509368896484f, 0.7710579037666321f, 0.09217208623886108f},
    {0.2945038080215454f, -0.22386431694030762f, -0.1769837886095047f, -0.09627614170312881f},
    {-0.36273738741874695f, 0.3916264772415161f, -0.09297051280736923f, -0.3394155204296112f},
    {-0.21864089369773865f, 0.5767704844474792f, -0.004843059461563826f, 0.15418897569179535f},
    {0.14539039134979248f, -0.47787225246429443f, -0.10850381851196289f, 0.39128997921943665f},
    {0.0008807125268504024f, 0.18945394456386566f, -0.26966774463653564f, 0.4219500422477722f},
    {0.12086866796016693f, -0.04178175330162048f, 0.13888444006443024f, -0.3448059558868408f},
    {0.151876300573349f, -0.037284549325704575f, -0.656990647315979f, -0.5374143123626709f},
    {0.4394957423210144f, -0.18413878977298737f, 0.006215040106326342f, 0.5233680605888367f},
    {-0.6317940950393677f, 0.23167236149311066f, -0.19711577892303467f, 0.4851796627044678f},
    {-0.3615071177482605f, 0.11718829721212387f, 0.254079669713974f, 0.09193196147680283f},
    {0.08578101545572281f, 0.18571458756923676f, 0.30434536933898926f, 0.4059680700302124f},
    {-0.023414406925439835f, 0.11658414453268051f, -0.4524025321006775f, 0.06108749657869339f},
    {0.38544169068336487f, -0.31044742465019226f, -0.4202914237976074f, -0.06601518392562866f},
    {-0.21083974838256836f, -0.05068502202630043f, -0.27156272530555725f, -0.10173194855451584f},
    {-0.09586100280284882f, 0.03006354533135891f, -0.057376086711883545f, -0.033070750534534454f},
    {-0.4565100371837616f, -0.016512833535671234f, -0.13146285712718964f, -0.10340698808431625f},
    {0.4869248569011688f, 0.28486311435699463f, 0.20068244636058807f, -0.07371065765619278f},
    {0.32106882333755493f, 0.055793363600969315f, -0.13383892178535461f, -0.13047318160533905f},
    {-0.21200138330459595f, 0.23151257634162903f, 0.4662953019142151f, 0.04221907630562782f},
    {0.129927858710289f, 0.6596853733062744f, 0.39598771929740906f, 0.1106061339378357f},
    {-0.02324591390788555f, -0.10099074989557266f, 0.05638045445084572f, -0.13298949599266052f},
    {0.05970429629087448f, -0.28284189105033875f, 0.011152360588312149f, 0.0039395554922521114f},
    {0.3029005229473114f, -0.08331852406263351f, -0.10064338892698288f, 0.3892703652381897f},
    {0.01872827671468258f, -0.12078754603862762f, 0.425405889749527f, 0.1449923813343048f},
    {-0.23879259824752808f, 0.41185101866722107f, 0.6829518675804138f, 0.07629099488258362f},
    {-0.08094807714223862f, -0.23355253040790558f, -0.7032814621925354f, 0.09775849431753159f},
    {0.31452319025993347f, 0.5202280879020691f, -0.39845582842826843f, -0.0768926665186882f},
    {0.026453297585248947f, 0.41247960925102234f, 0.32831060886383057f, 0.16721369326114655f},
    {0.16044840216636658f, -0.6630839109420776f, -0.4662843644618988f, -0.1263950914144516f},
    {-0.21415989100933075f, 0.017141135409474373f, 0.41651585698127747f, 0.3793087601661682f},
    {0.09180767834186554f, 0.22370187938213348f, -0.17792637646198273f, 0.15239807963371277f}
};

const float layer1_b[32] = {0.0028176892083138227f, 0.008043617010116577f, -0.04057172313332558f, 0.015622482635080814f, 0.03704475983977318f, -0.00033023266587406397f, -0.0034838535357266665f, -0.05099421739578247f, 0.04350472241640091f, -0.030643945559859276f, -0.017169402912259102f, -0.02407035045325756f, -0.018560342490673065f, 0.010235078632831573f, -0.008464778773486614f, 0.014135723933577538f, -0.0050780270248651505f, -0.023451413959264755f, -0.03712540492415428f, -0.00928026344627142f, 0.013798991218209267f, -0.0037842141464352608f, -0.008067091926932335f, 0.022579271346330643f, 0.010793384164571762f, -0.002896624617278576f, -0.007694586180150509f, -0.03617361560463905f, 0.007600751705467701f, -0.01174404751509428f, 0.020310472697019577f, 0.011476422660052776f};

const float layer2_w[32][32] = {
    {-0.5845195055007935f, -0.16481132805347443f, 0.21959249675273895f, -0.025368422269821167f, 0.19294984638690948f, 0.25403761863708496f, 0.30873727798461914f, -0.036224689334630966f, 0.08057863265275955f, 0.09676337242126465f, -0.1246342733502388f, 0.0013734475942328572f, 0.7021190524101257f, 0.18272724747657776f, -0.07563013583421707f, 0.12747357785701752f, -0.12134016305208206f, -0.01802689954638481f, 0.21192309260368347f, 0.12325013428926468f, -0.40360766649246216f, 0.23475535213947296f, -0.4429257810115814f, -0.1394568532705307f, -0.3269602358341217f, -0.4699867367744446f, 0.04095498099923134f, -0.1853792369365692f, -0.2698964774608612f, -0.3483221232891083f, -0.04459613189101219f, 0.1769426017999649f},
    {-0.01670408993959427f, -0.15014176070690155f, 0.08451277017593384f, 0.3195689022541046f, -0.29124706983566284f, -0.23140162229537964f, 0.0020416565239429474f, 0.3187275528907776f, -0.09216795116662979f, 0.1245262622833252f, 0.3243696093559265f, 0.10254982113838196f, -0.24885669350624084f, 0.043478094041347504f, -0.10636754333972931f, 0.45016342401504517f, -0.03443446755409241f, -0.37178197503089905f, -0.5679462552070618f, 0.1295638084411621f, 0.0750190019607544f, -0.49753570556640625f, -0.031110646203160286f, -0.5688340663909912f, 0.1351957470178604f, -0.20345564186573029f, -0.08920539170503616f, -0.30181315541267395f, -0.07292718440294266f, 0.021528851240873337f, 0.1573377102613449f, 0.34146448969841003f},
    {-0.3400580883026123f, 0.46971625089645386f, 0.050603996962308884f, 0.027636729180812836f, -0.08509551733732224f, 0.301683634519577f, 0.1593187153339386f, 0.09140603244304657f, 0.3540033996105194f, -0.5847250819206238f, 0.060730062425136566f, -0.24721786379814148f, -0.05448244512081146f, 0.30033454298973083f, -0.09905529022216797f, 0.11187713593244553f, 0.6051400303840637f, -0.04759218543767929f, -0.0881045013666153f, 0.061276875436306f, 0.18019691109657288f, -0.23831218481063843f, -0.058643702417612076f, 0.5116689801216125f, -0.2019343376159668f, -0.5085554718971252f, 0.3242305815219879f, 0.1358165740966797f, -0.04372637718915939f, -0.13012883067131042f, -0.01194026693701744f, -0.06672562658786774f},
    {-0.2440563291311264f, -0.1796184629201889f, -0.025652838870882988f, -0.06929599493741989f, -0.026859350502490997f, -0.2931417226791382f, -0.20966069400310516f, -0.23524214327335358f, 0.22143910825252533f, 0.27250826358795166f, 0.558496356010437f, -0.032275617122650146f, 0.32146766781806946f, -0.3340305685997009f, -0.0255361907184124f, -0.12221699208021164f, 0.04958724230527878f, -0.28335651755332947f, 0.1490413099527359f, -0.05426759645342827f, 0.16251923143863678f, -0.35892295837402344f, 0.5589244961738586f, -0.314418226480484f, -0.15107542276382446f, 0.1287635713815689f, 0.22650910913944244f, 0.07288782298564911f, 0.10493858903646469f, -0.33056119084358215f, -0.368426650762558f, -0.37777194380760193f},
    {-0.10378826409578323f, -0.5042971968650818f, 0.08769649267196655f, 0.1878514587879181f, -0.19061997532844543f, -0.16850802302360535f, 0.21039795875549316f, -0.39688530564308167f, 0.024653779342770576f, -0.12121281772851944f, 0.23181922733783722f, 0.02566257305443287f, -0.05948411673307419f, -0.0966617539525032f, -0.23552724719047546f, -0.653073251247406f, 0.037574734538793564f, -0.3473826050758362f, -0.3716888427734375f, 0.328692227602005f, -0.2127888947725296f, 0.21056166291236877f, -0.10443112999200821f, 0.16393856704235077f, -0.09578962624073029f, -0.05796670913696289f, -0.03441976010799408f, 0.18535466492176056f, 0.4557526409626007f, 0.30591490864753723f, 0.21479487419128418f, 0.03973116725683212f},
    {-0.23718006908893585f, -0.05558839440345764f, 0.14953339099884033f, 0.09504736959934235f, 0.16778160631656647f, -0.15806923806667328f, -0.4488486051559448f, 0.08721639961004257f, -0.2095748484134674f, 0.06430462747812271f, -0.16465094685554504f, -0.12003801763057709f, -0.1849057674407959f, -0.24311475455760956f, 0.36767464876174927f, 0.08543521165847778f, 0.4736982583999634f, 0.35089418292045593f, -0.012961812317371368f, -0.14577385783195496f, -0.7930010557174683f, -0.2689110040664673f, -0.06482397764921188f, 0.22502535581588745f, -0.35908401012420654f, -0.12801694869995117f, 0.01266629621386528f, 0.11295872926712036f, 0.2542525827884674f, -0.23655681312084198f, 0.23966236412525177f, 0.10282404720783234f},
    {-0.045868225395679474f, -0.05370286479592323f, -0.04181773215532303f, 0.09960614144802094f, 0.03874541074037552f, 0.09785716235637665f, 0.4473780393600464f, -0.0493786558508873f, 0.07804426550865173f, 0.11271601915359497f, -0.16347217559814453f, 0.29653385281562805f, 0.023709073662757874f, -0.08090542256832123f, 0.15223634243011475f, 0.09381785988807678f, 0.4362258017063141f, 0.49893054366111755f, -0.36148959398269653f, -0.38864070177078247f, 0.10027381777763367f, 0.46466073393821716f, 0.33716505765914917f, -0.3656143248081207f, -0.16683605313301086f, -0.31244704127311707f, 0.4189557433128357f, -0.10249181091785431f, 0.08288204669952393f, 0.17801524698734283f, 0.23039112985134125f, -0.24741263687610626f},
    {-0.10038589686155319f, 0.1689538210630417f, -0.09274847060441971f, -0.3254030644893646f, 0.45102423429489136f, -0.21222750842571259f, -0.1575130820274353f, -0.24033838510513306f, 0.020098445937037468f, 0.2603120505809784f, 0.5916357040405273f, 0.09483237564563751f, 0.1856110692024231f, -0.005945054814219475f, -0.3240187168121338f, 0.38527119159698486f, -0.0287545844912529f, 0.21845021843910217f, -0.30752459168434143f, -0.009776769205927849f, 0.08096276223659515f, 0.29338276386260986f, -0.05790439620614052f, 0.3362525999546051f, 0.12605753540992737f, 0.20260412991046906f, -0.06020863354206085f, -0.3630288243293762f, 0.303501158952713f, -0.031910620629787445f, 0.43887555599212646f, 0.17364400625228882f},
    {0.11995711177587509f, -0.0650223046541214f, 0.13158456981182098f, 0.13049480319023132f, -0.151231586933136f, -0.22920933365821838f, -0.09396788477897644f, -0.30555206537246704f, -0.35398614406585693f, -0.20101839303970337f, 0.12361038476228714f, 0.41245484352111816f, 0.35839372873306274f, -0.14740532636642456f, 0.2410186231136322f, 0.4485146999359131f, 0.040687497705221176f, -0.15060503780841827f, 0.0806543231010437f, -0.27357202768325806f, 0.2561579644680023f, -0.10091555118560791f, -0.3402896821498871f, 0.3826303780078888f, -0.39589723944664f, -0.1797829568386078f, -0.15433485805988312f, 0.08266528695821762f, -0.12692667543888092f, 0.4838208556175232f, -0.12741509079933167f, -0.23949265480041504f},
    {0.575803816318512f, -0.1448391228914261f, 0.7312701940536499f, -0.26854759454727173f, 0.22769641876220703f, -0.1332564502954483f, -0.07769463211297989f, 0.3050551116466522f, -0.062006473541259766f, -0.27898746728897095f, 0.15476712584495544f, -0.2518260180950165f, 0.06620664894580841f, 0.3772032856941223f, -0.1273786574602127f, -0.2780955135822296f, -0.13028083741664886f, -0.07173918187618256f, -0.08176778256893158f, -0.043902404606342316f, -0.11826944351196289f, -0.09085709601640701f, 0.2528071999549866f, -0.06988807767629623f, -0.19601362943649292f, -0.1352350413799286f, 0.045380014926195145f, -0.34030139446258545f, -0.1621747612953186f, 0.047470711171627045f, 0.10947193205356598f, -0.3364768624305725f},
    {0.28940847516059875f, -0.40726983547210693f, -0.036330219358205795f, 0.20715363323688507f, 0.24826069176197052f, -0.09081322699785233f, 0.08721540868282318f, 0.04043935611844063f, 0.24014757573604584f, 0.4982473850250244f, 0.023867648094892502f, -0.13938352465629578f, 0.04730255529284477f, 0.22371087968349457f, 0.2672285735607147f, 0.25651127099990845f, 0.5779598951339722f, -0.4687155783176422f, 0.026812413707375526f, 0.2391025573015213f, -0.09859468042850494f, 0.17012225091457367f, -0.147066131234169f, 0.2479943484067917f, 0.35690948367118835f, 0.3647041320800781f, 0.20539535582065582f, -0.0024715405888855457f, -0.2767573595046997f, 0.05851354822516441f, 0.010007623583078384f, -0.19972698390483856f},
    {-0.31557485461235046f, -0.12727808952331543f, -0.43174847960472107f, 0.11401712149381638f, -0.21824991703033447f, -0.11148346960544586f, -0.09058860689401627f, -0.09663408249616623f, 0.32804611325263977f, 0.10574787855148315f, 0.09431901574134827f, 0.05785365030169487f, -0.2573588490486145f, 0.5311240553855896f, 0.07992491126060486f, -0.19998149573802948f, -0.09199564903974533f, 0.4756379723548889f, -0.16878649592399597f, -0.19791224598884583f, -0.36361807584762573f, 0.020738882943987846f, 0.019109919667243958f, 0.35805240273475647f, -0.2011677622795105f, -0.23016852140426636f, -0.2648426592350006f, -0.40983545780181885f, -0.45598188042640686f, 0.1362483650445938f, -0.3955610692501068f, -0.20221033692359924f},
    {0.18287363648414612f, -0.1619463860988617f, 0.02625918760895729f, -0.39865878224372864f, 0.060151100158691406f, 0.4824170768260956f, 0.34725332260131836f, -0.095777228474617f, -0.20144641399383545f, 0.025166630744934082f, 0.6057679057121277f, 0.4650653600692749f, -0.09997396171092987f, 0.021562939509749413f, 0.300810307264328f, -0.3237423300743103f, 0.32635602355003357f, 0.10760974138975143f, 0.11810944974422455f, -0.0005170066142454743f, 0.019859876483678818f, -0.4789509177207947f, -0.28439611196517944f, -0.16121116280555725f, 0.20971760153770447f, 0.33162495493888855f, -0.09391983598470688f, -0.2394140213727951f, 0.17380312085151672f, -0.051810767501592636f, -0.13131025433540344f, 0.12428966909646988f},
    {-0.1649957299232483f, 0.07202300429344177f, -0.014625458046793938f, 0.4320532977581024f, 0.39590662717819214f, 0.09256955981254578f, -0.09070277214050293f, -0.09309874475002289f, 0.15237006545066833f, 0.10127557814121246f, -0.3544645309448242f, 0.4477275609970093f, 0.16728819906711578f, 0.01944861188530922f, 0.4304015040397644f, -0.33603689074516296f, -0.20907679200172424f, -0.07349064946174622f, 0.05045632645487785f, 0.11664440482854843f, 0.2602080702781677f, -0.349200040102005f, 0.20771285891532898f, 0.2154235690832138f, -0.09831493347883224f, -0.04073082283139229f, 0.025986215099692345f, -0.39850863814353943f, -0.09499834477901459f, -2.457758819218725e-05f, 0.597977876663208f, -0.034945014864206314f},
    {0.21714182198047638f, -0.346250981092453f, 0.036586154252290726f, 0.3354085683822632f, -0.0519578754901886f, -0.6019599437713623f, 0.4649006724357605f, 0.03330123797059059f, 0.10929366201162338f, -0.2062809020280838f, 0.28462982177734375f, 0.04903722554445267f, -0.4797826111316681f, -0.2500680983066559f, -0.24076487123966217f, 0.02257629856467247f, -0.09865501523017883f, 0.017935076728463173f, 0.3918326497077942f, -0.03632611036300659f, 0.4497734606266022f, -0.0377800315618515f, -0.23301874101161957f, -0.03604758530855179f, -0.15693235397338867f, 0.6442589163780212f, 0.03989916294813156f, -0.2156052440404892f, 0.045708995312452316f, -0.6010375022888184f, 0.22051963210105896f, 0.07907167822122574f},
    {-0.23996897041797638f, -0.005659531801939011f, -0.007959081791341305f, -0.4583314061164856f, 0.3120192289352417f, -0.3077538013458252f, -0.33038726449012756f, -0.050185803323984146f, 0.316813200712204f, 0.06703121960163116f, -0.6004395484924316f, 0.04694903641939163f, -0.1350228488445282f, 0.03755473718047142f, -0.0896705836057663f, -0.13539648056030273f, 0.4422209858894348f, 0.015923473984003067f, -0.10045639425516129f, 0.08592945337295532f, 0.41840919852256775f, -0.03220772743225098f, -0.44274067878723145f, -0.21713928878307343f, -0.05818470939993858f, -0.35450342297554016f, -0.36983180046081543f, -0.19226796925067902f, 0.19780145585536957f, 0.06926293671131134f, -0.17539748549461365f, -0.20362065732479095f},
    {-0.4980739653110504f, 0.27219530940055847f, 0.1460433006286621f, -0.005838196724653244f, -0.1766650229692459f, 0.1907334178686142f, -0.20867317914962769f, 0.0007476637838408351f, -0.34657272696495056f, 0.3088165819644928f, 0.19426825642585754f, -0.2936374843120575f, -0.15077926218509674f, -0.128252312541008f, -0.13720089197158813f, -0.3599521815776825f, 0.3317655622959137f, -0.13394354283809662f, 0.21296413242816925f, -0.008194252848625183f, 0.246016263961792f, 0.19783735275268555f, 0.05455705150961876f, -0.026868686079978943f, -0.19256184995174408f, 0.18224425613880157f, -0.07951471209526062f, -0.1855398565530777f, -0.516826868057251f, 0.3357747793197632f, 0.3311190605163574f, 0.13880181312561035f},
    {0.16174247860908508f, -0.0025681189727038145f, 0.2196856439113617f, 0.5725148320198059f, 0.12099932879209518f, 0.3062486946582794f, -0.1524604856967926f, 0.16097304224967957f, 0.01101233996450901f, 0.40175965428352356f, 0.3923921585083008f, -0.054958246648311615f, -0.19382670521736145f, -0.1148218959569931f, -0.3246897757053375f, 0.11873140931129456f, -0.1479889303445816f, 0.3860531449317932f, 0.3306417763233185f, 0.3741036057472229f, 0.1682737171649933f, -0.05513188615441322f, -0.2143205851316452f, -0.017154937610030174f, 0.03261909633874893f, -0.19404709339141846f, 0.004909368697553873f, -0.01175191905349493f, 0.34761711955070496f, 0.15841791033744812f, -0.06282537430524826f, -0.4846496284008026f},
    {-0.16670992970466614f, 0.12052160501480103f, -0.5382929444313049f, -0.13055510818958282f, -0.16088661551475525f, -0.030442725867033005f, 0.4615822434425354f, 0.4497157037258148f, -0.35068026185035706f, 0.07117046415805817f, -0.20338216423988342f, -0.35219699144363403f, 0.15446917712688446f, -0.054980356246232986f, 0.0023277397267520428f, -0.006211929954588413f, -0.04830227047204971f, -0.28178519010543823f, 0.1289883404970169f, -0.10741064697504044f, -0.18305258452892303f, -0.16525542736053467f, -0.025476090610027313f, 0.13476401567459106f, 0.02999015338718891f, -0.1447707861661911f, -0.13816355168819427f, -0.3864688575267792f, 0.43038561940193176f, 0.1090899407863617f, 0.1321028769016266f, -0.5302131772041321f},
    {-0.17130343616008759f, -0.059755872935056686f, -0.17297227680683136f, -0.10209303349256516f, 0.050855547189712524f, 0.29293936491012573f, -0.024753538891673088f, -0.43982747197151184f, 0.07850401848554611f, -0.1540154218673706f, -0.1901223063468933f, 0.09318890422582626f, -0.18453852832317352f, 0.6045117974281311f, -0.13970184326171875f, 0.43792101740837097f, 0.11675787717103958f, -0.0045751724392175674f, 0.2558511793613434f, 0.11648881435394287f, -0.17794382572174072f, -0.08844916522502899f, 0.16965065896511078f, -0.35620856285095215f, -0.4549066722393036f, 0.29776230454444885f, -0.40906694531440735f, 0.29797959327697754f, 0.14431826770305634f, 0.14103063941001892f, 0.44184863567352295f, -0.28884655237197876f},
    {-0.39024239778518677f, 0.1454077512025833f, -0.06574710458517075f, 0.1770678013563156f, 0.2480846792459488f, 0.14399489760398865f, -0.37609076499938965f, 0.6137316823005676f, 0.2764069736003876f, -0.3297319710254669f, 0.12431193143129349f, 0.4502332806587219f, -0.0433235839009285f, 0.17674021422863007f, 0.03728996962308884f, -0.14656153321266174f, 0.08412529528141022f, -0.35611072182655334f, 0.23243384063243866f, -0.5569565892219543f, -0.3032025694847107f, 0.49504393339157104f, -0.19132091104984283f, -0.14573843777179718f, -0.03356573358178139f, -0.09008839726448059f, -0.015489326789975166f, 0.1022309958934784f, 0.14365440607070923f, 0.20493292808532715f, -0.08553054183721542f, -0.05126770958304405f},
    {0.24214200675487518f, 0.6796765923500061f, -0.0013618392404168844f, 0.017939195036888123f, 0.02264331467449665f, -0.13907919824123383f, 0.2385404258966446f, 0.06613923609256744f, 0.20342697203159332f, 0.55644690990448f, -0.07226914912462234f, 0.09619873762130737f, -0.023653345182538033f, 0.36932769417762756f, 0.22258061170578003f, -0.1111309751868248f, 0.07414400577545166f, -0.18706807494163513f, 0.07028628140687943f, 0.015101185068488121f, -0.08267458528280258f, 0.1426670402288437f, 0.056875694543123245f, 0.07445740699768066f, -0.7327392101287842f, -0.19070512056350708f, -0.12292637676000595f, 0.09827562421560287f, 0.3256223797798157f, 0.07902461290359497f, -0.23762387037277222f, 0.40926796197891235f},
    {0.06757588684558868f, -0.16223053634166718f, 0.37515586614608765f, -0.014508678577840328f, -0.17593351006507874f, 0.13021744787693024f, 0.3096134662628174f, 0.35531938076019287f, 0.4387661814689636f, 0.18917416036128998f, 0.0015823617577552795f, 0.3366311192512512f, 0.1844833642244339f, -0.5307499766349792f, -0.40998050570487976f, 0.11041772365570068f, 0.07748366892337799f, 0.033546775579452515f, -0.19347456097602844f, 0.026229675859212875f, 0.0013706684112548828f, -0.21853025257587433f, 0.34414681792259216f, 0.3132096230983734f, 0.09919422119855881f, 0.47520580887794495f, -0.6628747582435608f, 0.10244223475456238f, -0.05706422030925751f, -0.03868981823325157f, 0.07071536034345627f, -0.024574125185608864f},
    {0.6522151231765747f, -0.14371338486671448f, -0.4703211486339569f, -0.11677711457014084f, -0.5343396067619324f, -0.0192726943641901f, -0.33247309923171997f, 0.26578405499458313f, 0.23377466201782227f, -0.11352237313985825f, 0.15875069797039032f, 0.1369655728340149f, 0.3507654368877411f, -0.34425294399261475f, -0.2046157717704773f, -0.10319465398788452f, 0.20456579327583313f, 0.16737468540668488f, 0.11829175055027008f, 0.4954055845737457f, 0.020776810124516487f, -0.001932485611177981f, -0.17881791293621063f, -0.24100247025489807f, -0.28577467799186707f, 0.22543393075466156f, 0.14718107879161835f, -0.1343277245759964f, -0.15118415653705597f, -0.017677871510386467f, 0.3034740388393402f, 0.0596921406686306f},
    {0.5066909193992615f, -0.0784149318933487f, -0.01061498373746872f, 0.4035511016845703f, -0.010937126353383064f, 0.2056758999824524f, -0.03946862742304802f, -0.3576751947402954f, -0.165739044547081f, -0.3444426655769348f, 0.11507481336593628f, -0.09047067165374756f, -0.13108667731285095f, -0.48393940925598145f, -0.05618160218000412f, 0.12632359564304352f, 0.2856561541557312f, -0.23873168230056763f, 0.10364852100610733f, 0.28445616364479065f, 0.06382911652326584f, 0.3073135018348694f, 0.39687418937683105f, -0.16153749823570251f, 0.13946019113063812f, 0.07311990112066269f, -0.5388014316558838f, -0.6408026814460754f, 0.11665773391723633f, -0.33342400193214417f, -0.31679627299308777f, 0.13281568884849548f},
    {-0.15535572171211243f, 0.07202859222888947f, -0.036928799003362656f, 0.07633302360773087f, 0.338891863822937f, 0.10576936602592468f, 0.16827324032783508f, -0.11222244054079056f, 0.6386743783950806f, -0.18288855254650116f, 0.052075546234846115f, -0.6772964000701904f, 0.12533296644687653f, -0.22571831941604614f, 0.38740378618240356f, 0.044035088270902634f, -0.12127795070409775f, 0.16960696876049042f, 0.05900398641824722f, -0.28775689005851746f, -0.1470380425453186f, -0.17960557341575623f, -0.2373686581850052f, -0.23911994695663452f, -0.1396050751209259f, -0.027018219232559204f, -0.06274334341287613f, 0.01232590340077877f, -0.015845533460378647f, 0.6911848783493042f, 0.006125607527792454f, 0.23273472487926483f},
    {-0.12047708034515381f, 0.22393102943897247f, 0.017384465783834457f, -0.20264574885368347f, 0.14022457599639893f, -0.11665460467338562f, 0.1441289782524109f, -0.3061964511871338f, 0.10195502638816833f, 0.1480708122253418f, -0.4405069053173065f, 0.2570515275001526f, -0.25892823934555054f, -0.04570119082927704f, -0.5438879728317261f, -0.01126422081142664f, 0.20596575736999512f, -0.032925110310316086f, 0.5424661040306091f, -0.31038373708724976f, -0.5860965251922607f, -0.22349192202091217f, -0.0287812277674675f, 0.08454436808824539f, 0.036564867943525314f, -0.4790399670600891f, 0.3906541168689728f, -0.13539905846118927f, -0.18598107993602753f, 0.5262405276298523f, -0.05024448782205582f, 0.16929905116558075f},
    {0.34776419401168823f, 0.3402024805545807f, 0.0796419307589531f, 0.20330040156841278f, -0.16939346492290497f, 0.22992676496505737f, -0.038662899285554886f, -0.39031746983528137f, 0.04351630061864853f, 0.22044618427753448f, -0.06376060843467712f, -0.12268742173910141f, -0.013692956417798996f, -0.15834401547908783f, -0.23394444584846497f, -0.17322944104671478f, -0.010703903622925282f, -0.19823329150676727f, -0.4253520667552948f, -0.5421623587608337f, -0.11507841944694519f, -0.06524621695280075f, -0.515961229801178f, -0.17888060212135315f, -0.05343674495816231f, 0.23196566104888916f, -0.0953899547457695f, -0.017307333648204803f, -0.14337849617004395f, -0.4139099717140198f, 0.1460486799478531f, -0.41385653614997864f},
    {-0.3111405670642853f, 0.44947347044944763f, 0.16842994093894958f, -0.2393856942653656f, 0.006504278630018234f, 0.05275007337331772f, 0.035896796733140945f, -0.12084013223648071f, 0.21318405866622925f, -0.12234881520271301f, -0.11341682076454163f, 0.3002016842365265f, -0.3857894539833069f, -0.275887131690979f, 0.24137094616889954f, 0.20405788719654083f, -0.2755105495452881f, -0.15192805230617523f, -0.22580792009830475f, 0.5436110496520996f, -0.3778429627418518f, 0.1350855678319931f, -0.14176017045974731f, -0.020379893481731415f, -0.14681246876716614f, 0.25106939673423767f, 0.3802463412284851f, -0.21950559318065643f, -0.08135170489549637f, 0.16344290971755981f, -0.16996929049491882f, -0.3734739422798157f},
    {0.034423116594552994f, -0.16607032716274261f, 0.0482446551322937f, 0.4428269565105438f, 0.14710618555545807f, -0.00980555173009634f, 0.008205940015614033f, 0.15351974964141846f, -0.4117776155471802f, -0.10611750930547714f, -0.15733039379119873f, -0.029851116240024567f, 0.29738345742225647f, 0.044576991349458694f, -0.46303775906562805f, -0.09848003834486008f, 0.1568784862756729f, 0.18693087995052338f, -0.32717907428741455f, 0.18400955200195312f, 0.2006334513425827f, -0.24087849259376526f, -0.017779609188437462f, -0.13317450881004333f, -0.15183627605438232f, 0.888174831867218f, 0.21041446924209595f, -0.17032501101493835f, 0.17336240410804749f, 0.09283345937728882f, -0.535396933555603f, 0.15064206719398499f},
    {-0.018057173117995262f, -0.19665659964084625f, 0.49035876989364624f, -0.013938958756625652f, -0.7954820394515991f, 0.07284670323133469f, -0.2355870008468628f, -0.1268392652273178f, 0.24370349943637848f, 0.09051871299743652f, -0.12052377313375473f, -0.09210526198148727f, 0.13608790934085846f, 0.16555893421173096f, 0.1431257277727127f, 0.15438668429851532f, -0.06076930835843086f, 0.01860038936138153f, 0.188339501619339f, -0.16437211632728577f, 0.1721094697713852f, 0.06207115575671196f, 0.007983183488249779f, 0.07578805088996887f, 0.2278634011745453f, 0.3700225055217743f, 0.1825764775276184f, -0.5130729079246521f, 0.5592982769012451f, -0.02421979233622551f, 0.03588401898741722f, 0.13704873621463776f},
    {-0.09972916543483734f, 0.6584433913230896f, 0.05674393102526665f, 0.2976604998111725f, -0.05202249065041542f, -0.5495908856391907f, 0.084195077419281f, -0.18375785648822784f, 0.08020090311765671f, -0.225195050239563f, 0.05611720308661461f, 0.1220814436674118f, 0.43306928873062134f, 0.3051416575908661f, 0.04305750131607056f, -0.18032805621623993f, 0.23060990869998932f, 0.23159387707710266f, 0.1491057276725769f, 0.128743976354599f, -0.33111217617988586f, -0.0711640864610672f, -0.02905740588903427f, -0.22482828795909882f, 0.5355601906776428f, -0.03335142508149147f, -0.17316243052482605f, 0.06416530907154083f, -0.011332263238728046f, 0.09590024501085281f, 0.13151822984218597f, -0.12915636599063873f}
};

const float layer2_b[32] = {-0.005665190517902374f, 0.012547812424600124f, 0.014065288938581944f, -0.00826979335397482f, -0.009408901445567608f, -0.003515054704621434f, 0.015896892175078392f, -0.002143610268831253f, -0.0016591050662100315f, 0.015253200195729733f, -0.011848884634673595f, 0.003654202213510871f, -0.01772753708064556f, 0.007988352328538895f, 0.01130177266895771f, 0.013088801875710487f, -0.01986905373632908f, -0.026613786816596985f, 0.02976638451218605f, 0.008133281953632832f, 0.004717881325632334f, 0.008054390549659729f, -0.02435368299484253f, -0.004504741635173559f, 0.016970008611679077f, -0.005512548610568047f, 0.007620702497661114f, 0.008844434283673763f, 0.0013169883750379086f, 0.008974618278443813f, 0.000628807523753494f, -0.0016305862227454782f};

const float output_w[1][32] = {
    {-0.06911356747150421f, 0.1355297863483429f, -0.16137726604938507f, 0.07826463878154755f, 0.07087890058755875f, -0.09840795397758484f, -0.09650777280330658f, 0.028610581532120705f, -0.0638156458735466f, -0.02705249935388565f, 0.037172406911849976f, -0.11489734053611755f, 0.12635530531406403f, 0.02136950008571148f, 0.18455325067043304f, -0.1112247183918953f, -0.04787334427237511f, 0.09131678193807602f, -0.05880734324455261f, -0.22754113376140594f, -0.08961507678031921f, -0.13148020207881927f, 0.08582906424999237f, 0.08296580612659454f, 0.08981160819530487f, -0.07918738573789597f, -0.17148642241954803f, 0.04260903596878052f, -0.07263905555009842f, 0.18304409086704254f, 0.07421625405550003f, -0.058255795389413834f}
};

const float output_b[1] = {-0.007976669818162918f};

