// Pesos del modelo Bala2 generados automaticamente

const float layer1_w[32][4] = {
    {-0.3340919017791748f, -0.05665101855993271f, -0.4798479676246643f, 0.03530365973711014f},
    {0.13527566194534302f, 0.03757026419043541f, -0.15201392769813538f, -0.13620199263095856f},
    {0.4105902314186096f, -0.45131778717041016f, -0.5052737593650818f, -0.07504024356603622f},
    {-0.5126819610595703f, 0.4968196749687195f, 0.15183071792125702f, 0.1167820617556572f},
    {0.03064587153494358f, 0.5016866326332092f, 0.4887542724609375f, 0.16821527481079102f},
    {-0.3960628807544708f, 0.3303002119064331f, 0.27852001786231995f, 0.09617070853710175f},
    {-0.1940860152244568f, 0.22912836074829102f, 0.3451244831085205f, 0.04150431975722313f},
    {0.10738834738731384f, 0.21318119764328003f, 0.24099262058734894f, 0.5350536704063416f},
    {0.14776962995529175f, 0.6872031092643738f, -0.21359317004680634f, 0.031876202672719955f},
    {-0.46881142258644104f, 0.7381681799888611f, -0.03368368744850159f, -0.24082034826278687f},
    {-0.2063664048910141f, 0.028194347396492958f, 0.5220774412155151f, -0.005241916514933109f},
    {-0.025155723094940186f, -0.07877542823553085f, -0.1458328813314438f, -0.06475242972373962f},
    {-0.5867680311203003f, 0.07089018076658249f, -0.15145641565322876f, 0.07260902225971222f},
    {-0.08669202774763107f, 0.3072745203971863f, 0.5500946640968323f, 0.06810436397790909f},
    {-0.3748478889465332f, -0.0827522799372673f, 0.3247207999229431f, 0.3836963474750519f},
    {-0.13142512738704681f, -0.279938668012619f, -0.47417983412742615f, -0.11558376252651215f},
    {-0.4833054840564728f, 0.4997026324272156f, 0.37644946575164795f, 0.5508283376693726f},
    {-0.1401844024658203f, 0.52581387758255f, -0.5802586078643799f, 0.010132533498108387f},
    {0.1944025456905365f, -0.0449359305202961f, -0.036000002175569534f, 0.3973849415779114f},
    {-0.2699326276779175f, 0.1215813010931015f, -0.482425719499588f, -0.03765690699219704f},
    {-0.015095354057848454f, 0.15086428821086884f, 0.0874895378947258f, 0.28320610523223877f},
    {0.015374217182397842f, -0.29238200187683105f, -0.18830420076847076f, 0.5800575017929077f},
    {-0.20684288442134857f, 0.007960488088428974f, 0.514472484588623f, 0.08417215943336487f},
    {-0.2424280196428299f, -0.029313325881958008f, 0.773367702960968f, -0.2609124779701233f},
    {-0.27417847514152527f, 0.3694012761116028f, -0.11404696851968765f, 0.027330290526151657f},
    {0.09828096628189087f, 0.38924485445022583f, 0.17966488003730774f, -0.0033757491037249565f},
    {-0.026501379907131195f, 0.06995251029729843f, -0.4297470152378082f, -0.04874787852168083f},
    {0.06575040519237518f, 0.24433085322380066f, -0.28018295764923096f, -0.23972436785697937f},
    {0.29331091046333313f, 0.14461107552051544f, 0.2934844195842743f, 0.49022454023361206f},
    {0.7827591300010681f, -0.40380558371543884f, -0.299734890460968f, -0.09940362721681595f},
    {-0.17872795462608337f, -0.21679167449474335f, -0.25233393907546997f, -0.7062942385673523f},
    {0.28908771276474f, -0.4768018424510956f, -0.34398210048675537f, -0.18257646262645721f}
};

const float layer1_b[32] = {0.005237220786511898f, -0.00016747834160923958f, 0.0005259372992441058f, -0.0032489283476024866f, 0.00785122625529766f, -0.007562759332358837f, -0.07546669989824295f, 0.011922113597393036f, 0.014090696349740028f, -0.055494293570518494f, 0.00451086089015007f, -0.01963965967297554f, -0.008363032713532448f, -0.006871645804494619f, 0.03932006657123566f, -0.004985489416867495f, -0.0016596309142187238f, -0.017024770379066467f, 0.07815580815076828f, -0.005829067435115576f, 0.012618460692465305f, 0.040869854390621185f, 0.0038151778280735016f, -0.06179625913500786f, 0.017944613471627235f, -0.003256822470575571f, -0.004860632587224245f, -0.04985814541578293f, 0.0458986721932888f, 0.002864774316549301f, -0.028206920251250267f, 0.00900376494973898f};

const float layer2_w[32][32] = {
    {-0.12412507832050323f, 0.14981146156787872f, -0.24446852505207062f, 0.13181157410144806f, 0.4330306947231293f, -0.07025451213121414f, 0.2676805853843689f, 0.0332716628909111f, 0.27637937664985657f, 0.18050074577331543f, -0.345044881105423f, 0.0010441570775583386f, -0.19641558825969696f, -0.07348829507827759f, 0.08757180720567703f, -0.1401827335357666f, -0.19322848320007324f, 0.11052242666482925f, -0.045533470809459686f, -0.08153942972421646f, 0.10959085077047348f, -0.044989388436079025f, 0.07677727937698364f, 0.17023685574531555f, 0.25968137383461f, -0.3981039226055145f, 0.11834104359149933f, 0.10576088726520538f, 0.5086803436279297f, -0.45395714044570923f, -0.5565802454948425f, 0.29147523641586304f},
    {0.03874707221984863f, 0.3136611878871918f, -0.4674687087535858f, 0.1614108383655548f, 0.046934083104133606f, 0.08657671511173248f, -0.4832524061203003f, -0.44024401903152466f, -0.16909825801849365f, 0.20097501575946808f, 0.15269534289836884f, -0.5370230078697205f, 0.15154039859771729f, 0.21885927021503448f, -0.3197411894798279f, 0.058767568320035934f, -0.14696595072746277f, -0.24821589887142181f, 0.47629228234291077f, -0.06784563511610031f, -0.07268443703651428f, -0.25531551241874695f, 0.33042800426483154f, 0.35745716094970703f, 0.27442100644111633f, 0.1293664425611496f, -0.26755157113075256f, -0.27796515822410583f, -0.10573767870664597f, -0.20992501080036163f, 0.13457174599170685f, 0.05760645493865013f},
    {-0.04653380438685417f, -0.00938180647790432f, 0.26489660143852234f, 0.0008282744674943388f, -0.34569793939590454f, 0.6041996479034424f, 0.1081075519323349f, -0.8095639944076538f, -0.014260697178542614f, 0.4078139066696167f, 0.01841023936867714f, 0.14456352591514587f, 0.09085255116224289f, -0.07206025719642639f, -0.10911288857460022f, -0.2880849838256836f, 0.059500690549612045f, 0.3835805654525757f, -0.22604694962501526f, 0.2857280373573303f, -0.3204091191291809f, -0.2406240850687027f, -0.034667015075683594f, -0.189927339553833f, 0.06821653246879578f, 0.030405700206756592f, -0.16112294793128967f, 0.02321251854300499f, 0.03918393701314926f, -0.05107484012842178f, -0.3332473933696747f, -0.07961303740739822f},
    {-0.4891436696052551f, 0.09178446978330612f, 0.28871485590934753f, -0.3719117343425751f, -0.021243654191493988f, 0.05900513380765915f, -0.0833224281668663f, -0.08786321431398392f, 0.026382457464933395f, -0.24234627187252045f, 0.14362022280693054f, 0.001955119427293539f, -0.7699708342552185f, 0.2638155221939087f, -0.43869295716285706f, 0.004824980162084103f, -0.07195108383893967f, -0.09317775815725327f, -0.053156737238168716f, -0.17355254292488098f, 0.1208990067243576f, -0.018594883382320404f, 0.019949641078710556f, 0.05442440137267113f, 0.07803241908550262f, 0.0621575266122818f, -0.3898467719554901f, 0.2524034380912781f, 0.2791784405708313f, -0.16589374840259552f, 0.2612450420856476f, 0.19917269051074982f},
    {-0.24805203080177307f, -0.3576701283454895f, 0.5036984086036682f, 0.0926869809627533f, 0.09577833116054535f, -0.33594515919685364f, -0.2531118392944336f, -0.18228337168693542f, 0.3291558027267456f, -0.2797880470752716f, -0.14785881340503693f, 0.5069273114204407f, 0.3344273865222931f, 0.06064039096236229f, -0.23458349704742432f, 0.11139828711748123f, -0.08134406059980392f, -0.09719757735729218f, 0.2654286324977875f, 0.49745652079582214f, 0.24992258846759796f, 0.09914210438728333f, 0.22528360784053802f, 0.07991090416908264f, 0.2529744803905487f, -0.1812753528356552f, 0.04674552008509636f, -0.07692419737577438f, -0.3326142728328705f, 0.20703738927841187f, -0.21286869049072266f, 0.25437745451927185f},
    {0.22580772638320923f, -0.24144507944583893f, -0.3502291440963745f, -0.06396128982305527f, 0.14344310760498047f, 0.6385570168495178f, -0.3266102373600006f, -0.07195302844047546f, 0.4218042492866516f, 0.07604128122329712f, -0.11869797110557556f, -0.07883787155151367f, 0.23787768185138702f, -0.07444389909505844f, -0.30370908975601196f, 0.18746694922447205f, 0.03282569721341133f, -0.05362136662006378f, -0.025286605581641197f, 0.14764446020126343f, 0.1107645258307457f, 0.30916398763656616f, -0.07411199808120728f, 0.3633630871772766f, -0.20387452840805054f, -0.2714037597179413f, -0.2239241600036621f, 0.5845416188240051f, 0.2065587192773819f, 0.05876573920249939f, 0.09804945439100266f, -0.36490264534950256f},
    {0.15651103854179382f, 0.09194149821996689f, -0.28325048089027405f, -0.03095993772149086f, 0.18430328369140625f, 0.020444657653570175f, -0.013767717406153679f, 0.25615519285202026f, -0.16766966879367828f, 0.14837691187858582f, 0.3295145630836487f, 0.4330264925956726f, 0.13755401968955994f, -0.5013977289199829f, -0.4123234152793884f, 0.11560417711734772f, -0.1693088412284851f, 0.6573869585990906f, 0.011112479493021965f, 0.060087691992521286f, -0.0398905947804451f, -0.06228388845920563f, -0.17997108399868011f, -0.2249893993139267f, 0.41507792472839355f, 0.15906469523906708f, -0.2928999960422516f, 0.38379815220832825f, -0.2929682433605194f, -0.07304028421640396f, 0.18458862602710724f, 0.2389136403799057f},
    {-0.21064458787441254f, 0.14649410545825958f, 0.03592894598841667f, -0.18875287473201752f, -0.2741335928440094f, 0.2079809308052063f, 0.02687579020857811f, 0.1042834222316742f, -0.43080490827560425f, -0.5298407077789307f, -0.09666470438241959f, 0.11169631034135818f, -0.0011263331398367882f, -0.23161357641220093f, 0.3414427936077118f, -0.1828102022409439f, 0.15119974315166473f, -0.09329868108034134f, 0.34687286615371704f, 0.14893049001693726f, 0.6020402908325195f, 0.007537422701716423f, 0.05962755158543587f, -0.11569507420063019f, 0.15493686497211456f, -0.23598715662956238f, -0.07450336217880249f, 0.04285560920834541f, -0.22491683065891266f, -0.5407658815383911f, -0.18314431607723236f, -0.4169013500213623f},
    {-0.5069674849510193f, -0.26410403847694397f, -0.1548134833574295f, 0.2515018582344055f, 0.15149150788784027f, 0.3471444249153137f, -0.016056211665272713f, -0.013227678835391998f, 0.09392823278903961f, 0.5824016332626343f, -0.005136881954967976f, -0.06337859481573105f, 0.1714339703321457f, 0.18980753421783447f, -0.08013764768838882f, -0.37014275789260864f, 0.2981557250022888f, -0.058049775660037994f, 0.053514499217271805f, -0.6846983432769775f, 0.4242408573627472f, -0.14460889995098114f, -0.30402401089668274f, 0.0560222864151001f, -0.042907584458589554f, -0.09116057306528091f, 0.03296026214957237f, -0.018315216526389122f, -0.35515183210372925f, -0.06381893903017044f, 0.27862268686294556f, 0.3117488622665405f},
    {0.2935417592525482f, -0.2722231447696686f, 0.3412783443927765f, 0.28206369280815125f, 0.08655092120170593f, 0.04491352662444115f, -0.06055152788758278f, -0.1608181744813919f, -0.027082234621047974f, -0.44176992774009705f, -0.3820405602455139f, 0.08086736500263214f, 0.23262135684490204f, -0.25687459111213684f, 0.20442406833171844f, 0.0038829511031508446f, -0.4681144952774048f, -0.09572932124137878f, -0.16894812881946564f, -0.4225444495677948f, -0.40129825472831726f, -0.18542036414146423f, -0.23491033911705017f, 0.2126234918832779f, 0.14409051835536957f, 0.1906265914440155f, -0.41896727681159973f, 0.05639292299747467f, -0.10868288576602936f, -0.29483506083488464f, 0.08262179046869278f, 0.1462782472372055f},
    {-0.12159918993711472f, -0.05802125856280327f, -0.06055261194705963f, -0.0518355630338192f, 0.15023556351661682f, 0.04991459846496582f, -0.3206802010536194f, -0.0214224923402071f, -0.09452562779188156f, -0.04774016886949539f, 0.08649104088544846f, -0.15071317553520203f, -0.08762063086032867f, -0.015535409562289715f, -0.1112554669380188f, -0.08815672993659973f, -0.4123847484588623f, -0.21005603671073914f, 0.14877334237098694f, -0.06091121584177017f, 0.0729396864771843f, 0.7050603628158569f, -0.2217922806739807f, -0.6230962872505188f, -0.28653717041015625f, 0.31633260846138f, -0.026516584679484367f, -0.25637921690940857f, -0.020659876987338066f, -0.06699264794588089f, -0.5923953652381897f, 0.16624130308628082f},
    {-0.07800320535898209f, 0.4425911605358124f, -0.31875064969062805f, 0.24498490989208221f, -0.1433202028274536f, -0.15616966784000397f, 0.2992273271083832f, -0.27244386076927185f, -0.08428404480218887f, -0.020914511755108833f, -0.5050594210624695f, 0.04060223326086998f, 0.2356247454881668f, -0.14198412001132965f, -0.03365127369761467f, 0.008739410899579525f, 0.1560332179069519f, -0.012689207680523396f, 0.13361108303070068f, 0.4088173806667328f, 0.0476030595600605f, 0.15960296988487244f, 0.031088467687368393f, -0.10341810435056686f, -0.4325528144836426f, 0.08026637136936188f, -0.255297988653183f, 0.2284458428621292f, 0.0902809277176857f, -0.03587977960705757f, 0.32316797971725464f, 0.554556667804718f},
    {-0.04088730737566948f, -0.3399706780910492f, -0.27313485741615295f, 0.08342280983924866f, 0.2909662127494812f, -0.26533350348472595f, -0.2422533482313156f, -0.26702529191970825f, -0.166287362575531f, -0.011238815262913704f, 0.352812796831131f, 0.12633536756038666f, 0.028114408254623413f, 0.36700740456581116f, 0.32810235023498535f, -0.24755343794822693f, 0.30135592818260193f, -0.011194680817425251f, -0.37272849678993225f, 0.34961387515068054f, 0.16213472187519073f, 0.18552695214748383f, -0.3831902742385864f, 0.24374794960021973f, -0.08942455053329468f, 0.31271496415138245f, -0.11556150019168854f, -0.007756891194730997f, 0.23912875354290009f, -0.4651639759540558f, 0.21040688455104828f, -0.023007377982139587f},
    {0.12616591155529022f, -0.3219203054904938f, 0.000680448894854635f, 0.10118620097637177f, -0.07600841671228409f, 0.14833401143550873f, 0.3391778767108917f, -0.06063631549477577f, -0.3524458706378937f, -0.30070969462394714f, 0.6231533288955688f, -0.03290266916155815f, -0.07443135231733322f, 0.25140446424484253f, 0.2179303616285324f, -0.14174799621105194f, -0.18899057805538177f, 0.16769686341285706f, 0.5367454290390015f, -0.12019307911396027f, 0.06605304032564163f, 0.1171320304274559f, 0.04207461327314377f, 0.3227727711200714f, -0.2707115411758423f, -0.32298073172569275f, -0.004195794463157654f, 0.11045040190219879f, 0.20646433532238007f, 0.2651393711566925f, -0.2069915384054184f, 0.4453381299972534f},
    {0.008652386255562305f, 0.11331888288259506f, -0.0271452609449625f, -0.04312305524945259f, 0.13615763187408447f, 0.17188236117362976f, -0.08515133708715439f, 0.020806167274713516f, 0.2723357677459717f, -0.053165506571531296f, 0.20530958473682404f, 0.04637189581990242f, 0.35045525431632996f, 0.26955127716064453f, 0.20474205911159515f, -0.5417776703834534f, -0.11379502713680267f, -0.45256561040878296f, 0.19252540171146393f, -0.01902478188276291f, -0.2761152386665344f, -0.23874211311340332f, 0.23339678347110748f, -0.6286066770553589f, 0.23569011688232422f, 0.04453391954302788f, 0.017828064039349556f, 0.4328172206878662f, 0.31563112139701843f, 0.0781165361404419f, 0.4346771836280823f, 0.09650133550167084f},
    {0.19449764490127563f, 0.3166152536869049f, -0.3996638059616089f, 0.0015704535180702806f, 0.4240270256996155f, 0.025726115331053734f, -0.2132907509803772f, -0.1921609342098236f, 0.31027719378471375f, -0.27411991357803345f, 0.03774794563651085f, 0.13444629311561584f, -0.3100201487541199f, 0.5516507625579834f, 0.22098135948181152f, -0.11153649538755417f, 0.2849893271923065f, 0.08965232968330383f, 0.004180870484560728f, -0.25455760955810547f, -0.11806769669055939f, -0.302336722612381f, 0.001842011697590351f, -0.1713494211435318f, -0.41012367606163025f, -0.2176084816455841f, -0.27451834082603455f, 0.13492317497730255f, -0.595596969127655f, 0.07239162921905518f, -0.29232534766197205f, -0.03763667866587639f},
    {-0.33619746565818787f, -0.24090628325939178f, 0.04316508397459984f, 0.08435113728046417f, 0.2733874022960663f, 0.06493587791919708f, 0.17884983122348785f, 0.44231000542640686f, -0.06375277042388916f, -0.10968093574047089f, 0.055368710309267044f, -0.3408123254776001f, 0.09737765043973923f, -0.023889439180493355f, 0.05985021963715553f, 0.2345852255821228f, 0.46248579025268555f, -0.05286935344338417f, 0.1104753389954567f, 0.30761003494262695f, -0.030546246096491814f, -0.42809996008872986f, -0.2105863094329834f, -0.13404549658298492f, 0.018072163686156273f, 0.11067098379135132f, -0.6359050273895264f, -0.22150029242038727f, 0.26304206252098083f, 0.27799949049949646f, -0.40293166041374207f, -0.0030778974760323763f},
    {-0.2177489995956421f, -0.06312835216522217f, -0.21330097317695618f, -0.2287573516368866f, 0.11811740696430206f, -0.12636245787143707f, 0.04510634392499924f, 0.15102314949035645f, -0.1934114694595337f, 0.5296435356140137f, -0.08179901540279388f, 0.4070879817008972f, -0.15205560624599457f, 0.04595156013965607f, 0.3805676996707916f, -0.3479958474636078f, -0.18184524774551392f, -0.4747253656387329f, 0.34617534279823303f, -0.19226013123989105f, 0.04032310098409653f, 0.020987609401345253f, 0.22906093299388885f, 0.36991584300994873f, -0.2630792558193207f, 0.35604333877563477f, -0.48441416025161743f, 0.16605710983276367f, -0.014698516577482224f, 0.22164036333560944f, -0.2857625484466553f, -0.32025888562202454f},
    {-0.07328808307647705f, -0.3303816616535187f, -0.07752349227666855f, -0.2374097853899002f, 0.03425351157784462f, -0.3006875514984131f, 0.2449791431427002f, -0.4393351674079895f, 0.38411328196525574f, 0.0053426180966198444f, -0.10884148627519608f, -0.14442192018032074f, -0.21084360778331757f, -0.3039959669113159f, 0.33916279673576355f, 0.20597779750823975f, -0.3172592222690582f, 0.34266191720962524f, 0.5209557414054871f, 0.06633199751377106f, 0.011894443072378635f, 0.02180444821715355f, -0.33097150921821594f, -0.31459465622901917f, 0.08998039364814758f, -0.16420847177505493f, -0.07283886522054672f, -0.2481396198272705f, 0.0026993723586201668f, 0.11565878242254257f, 0.44070038199424744f, -0.3000788390636444f},
    {0.06581604480743408f, -0.04163725674152374f, -0.06462796032428741f, 0.6135615706443787f, 0.3612788915634155f, 0.11349871754646301f, 0.32652220129966736f, -0.35994598269462585f, -0.24954421818256378f, -0.13244564831256866f, -0.09224283695220947f, 0.2437976747751236f, -0.1976546049118042f, 0.18980957567691803f, -0.33217403292655945f, 0.19001245498657227f, -0.06362088769674301f, -0.05995810031890869f, 0.05009022727608681f, -0.20865947008132935f, 0.4312945008277893f, -0.249009907245636f, 0.10500233620405197f, -0.176343634724617f, -0.07697847485542297f, 0.45664098858833313f, 0.21355833113193512f, 0.14865849912166595f, 0.19596266746520996f, 0.21618014574050903f, 0.04469897970557213f, -0.4120897352695465f},
    {-0.028242619708180428f, -0.6427122354507446f, -0.6073079109191895f, -0.10685757547616959f, -0.19130341708660126f, -0.19415178894996643f, -0.02116302028298378f, -0.1895662099123001f, -0.19172391295433044f, 0.03861328959465027f, 0.2133793830871582f, 0.04158473014831543f, 0.02853468991816044f, -0.1271461844444275f, -0.2162499725818634f, 0.21854643523693085f, -0.05099610984325409f, -0.6087313890457153f, -0.254458487033844f, -0.20018675923347473f, -0.1055992841720581f, -0.4020877480506897f, 0.42871078848838806f, -0.34320056438446045f, -0.37342894077301025f, -0.3216828405857086f, -0.04316775128245354f, 0.1201106607913971f, -0.05887218564748764f, -0.30934470891952515f, -0.09257283806800842f, 0.077834852039814f},
    {-0.5583279132843018f, 0.3117872476577759f, -0.1763090044260025f, 0.33570337295532227f, -0.13091054558753967f, 0.04574473202228546f, -0.3703962564468384f, -0.13069672882556915f, 0.03804424777626991f, -0.08294352144002914f, 0.31190136075019836f, -0.1259085237979889f, 0.08851621299982071f, -0.24758486449718475f, 0.5306888818740845f, 0.2680104970932007f, -0.40318378806114197f, 0.10419470071792603f, -0.45849665999412537f, 0.01013466902077198f, 0.23133419454097748f, -0.10609456896781921f, 0.032636865973472595f, 0.06988654285669327f, 0.10775506496429443f, -0.0320931077003479f, 0.06909900903701782f, 0.2525433301925659f, 0.035494040697813034f, 0.40933889150619507f, -0.06296201795339584f, 0.0051626646891236305f},
    {-0.08067944645881653f, -0.033789899200201035f, -0.09115492552518845f, 0.5511585474014282f, -0.589882493019104f, 0.024499397724866867f, -0.016059773042798042f, 0.28545284271240234f, 0.4518522024154663f, 0.03795194625854492f, 0.0971834659576416f, -0.08598703145980835f, -0.16857799887657166f, 0.02675679139792919f, -0.1988443285226822f, -0.06382723152637482f, -0.13217443227767944f, 0.05045078322291374f, 0.29929134249687195f, 0.2580232620239258f, -0.277744859457016f, -0.2757856547832489f, -0.42709895968437195f, 0.1420438587665558f, -0.135347381234169f, 0.3270961046218872f, 0.2629207670688629f, 0.4212164282798767f, -0.18600282073020935f, -0.35496801137924194f, -0.08845594525337219f, -0.08096644282341003f},
    {-0.5751519799232483f, -0.09297209978103638f, -0.03522923216223717f, 0.07036847621202469f, 0.4466431140899658f, 0.30400335788726807f, -0.019303306937217712f, 0.047662071883678436f, 0.08994743973016739f, -0.004866137634962797f, 0.1291617453098297f, -0.029571279883384705f, 0.016350964084267616f, -0.1213044747710228f, 0.06391109526157379f, 0.03502650931477547f, 0.09936206042766571f, 0.3964008092880249f, 0.08329546451568604f, -0.003679143963381648f, -0.48789674043655396f, 0.04508594423532486f, 0.6685040593147278f, 0.19665426015853882f, -0.41539373993873596f, 0.31859415769577026f, 0.2087298184633255f, 0.011915644630789757f, -0.13484793901443481f, -0.3924320340156555f, 0.21657173335552216f, -0.07086719572544098f},
    {-0.13549228012561798f, 0.4741496741771698f, 0.1198924109339714f, -0.19819527864456177f, 0.053326334804296494f, 0.23014727234840393f, 0.21023458242416382f, -0.004750490188598633f, 0.16754472255706787f, -0.03075893595814705f, 0.3482191264629364f, 0.6007691025733948f, 0.3687831461429596f, -0.013617848977446556f, 0.019290948286652565f, 0.6253343224525452f, -0.013828424736857414f, -0.26240095496177673f, 0.17099997401237488f, -0.10258368402719498f, -0.10828981548547745f, -0.012699918821454048f, -0.4582173228263855f, 0.0945136770606041f, -0.12094614654779434f, -0.04639173299074173f, 0.14774510264396667f, -0.3576730489730835f, 0.22691252827644348f, -0.2632381319999695f, -0.04420686140656471f, -0.03858489915728569f},
    {0.36133500933647156f, 0.0678049772977829f, 0.4644720256328583f, -0.39411503076553345f, -0.20716145634651184f, -0.3905888497829437f, -0.39671590924263f, -0.03639112785458565f, 0.22707445919513702f, 0.049465157091617584f, -0.022085700184106827f, -0.028851965442299843f, 0.34770816564559937f, -0.2105174958705902f, 0.014519792050123215f, 0.12386997044086456f, -0.05755804106593132f, 0.49598589539527893f, 0.14294658601284027f, -0.11698780208826065f, 0.4754021465778351f, -0.47399210929870605f, 0.04627527296543121f, -0.08310750871896744f, -0.38102689385414124f, 0.2749499976634979f, 0.09532617032527924f, 0.0957300215959549f, 0.3783184289932251f, -0.13826332986354828f, -0.14503486454486847f, 0.1322401463985443f},
    {0.21716269850730896f, 0.019621921703219414f, 0.33947277069091797f, -0.2251991480588913f, 0.3866593837738037f, 0.25526249408721924f, 0.38170957565307617f, -0.11804790794849396f, 0.049662597477436066f, 0.2735911011695862f, 0.11351034045219421f, -0.5194379091262817f, 0.017358694225549698f, -0.021668078377842903f, 0.16764463484287262f, 0.31837406754493713f, -0.21810464560985565f, -0.2632468342781067f, -0.12213455885648727f, 0.3363860547542572f, 0.21761643886566162f, -0.14278031885623932f, -0.050888530910015106f, -0.0022784594912081957f, 0.009731483645737171f, 0.22611099481582642f, 0.139937624335289f, 0.4413187801837921f, -0.5073249936103821f, -0.24016621708869934f, 0.045690976083278656f, 0.23319952189922333f},
    {-0.2580097019672394f, -0.03490147739648819f, -0.49669456481933594f, -0.1662944108247757f, -0.017045140266418457f, 0.19363060593605042f, 0.41260483860969543f, 0.18419846892356873f, 0.12479960918426514f, -0.11219482868909836f, -0.05506591126322746f, -0.1991458386182785f, 0.45480039715766907f, 0.6914304494857788f, -0.3104940354824066f, -0.3999200761318207f, -0.6164813041687012f, 0.16731701791286469f, -0.38063231110572815f, -0.03637351095676422f, 0.16595086455345154f, -0.1413087695837021f, 0.19127647578716278f, 0.09807661175727844f, -0.25433656573295593f, 0.09157555550336838f, -0.25870686769485474f, -0.1785566359758377f, -0.1837199181318283f, -0.05910787731409073f, 0.14015965163707733f, -0.2233322560787201f},
    {0.2916930615901947f, 0.01454119011759758f, 0.13864152133464813f, 0.49081602692604065f, 0.028488334268331528f, 0.27133694291114807f, -0.17836503684520721f, 0.25366392731666565f, 0.1562856137752533f, 0.2784560024738312f, 0.1685301810503006f, 0.16198895871639252f, -0.3449897766113281f, -0.04053441435098648f, 0.09182379394769669f, -0.12129369378089905f, -0.334115207195282f, -0.169096902012825f, -0.12899896502494812f, 0.2605656385421753f, 0.26555952429771423f, -0.16069962084293365f, 0.2759406268596649f, -0.15645596385002136f, -0.3733912706375122f, -0.3335351347923279f, -0.4254746735095978f, -0.49338433146476746f, 0.0089942691847682f, -0.1986851841211319f, 0.3514440953731537f, 0.046441931277513504f},
    {0.08484498411417007f, -0.19544076919555664f, -0.1149793267250061f, 0.10090887546539307f, -0.4293529987335205f, 0.22912999987602234f, 0.05971996486186981f, 0.132310688495636f, 0.15641316771507263f, 0.21322393417358398f, -0.17755627632141113f, 0.11154882609844208f, -0.03232865035533905f, 0.5651032328605652f, 0.3947712779045105f, 0.5727543830871582f, 0.1585971713066101f, 0.18950743973255157f, -0.001265839789994061f, -0.24261704087257385f, 0.09451299160718918f, 0.32947462797164917f, 0.3928913474082947f, -0.1967410147190094f, 0.2597324550151825f, 0.2641237676143646f, -0.2986569106578827f, 0.1017688512802124f, 0.006941455882042646f, -0.14532041549682617f, -0.014142719097435474f, 0.17771290242671967f},
    {0.15706980228424072f, -0.21624432504177094f, -0.2562870979309082f, -0.4248332381248474f, -0.04337070509791374f, 0.4981282949447632f, -0.2534920871257782f, 0.11307497322559357f, -0.03406606614589691f, -0.35357382893562317f, -0.3988374173641205f, 0.23865261673927307f, -0.3065444529056549f, -0.21131272614002228f, 0.18718154728412628f, -0.019878387451171875f, -0.06337635219097137f, -0.04585656151175499f, 0.08803091943264008f, 0.2256191223859787f, 0.13058799505233765f, -0.3040756285190582f, -0.1187639907002449f, 0.05311574786901474f, 0.08076738566160202f, 0.3366089463233948f, 0.4221038520336151f, -0.3775427043437958f, 0.10383312404155731f, 0.3216817378997803f, 0.04913375899195671f, 0.46970266103744507f},
    {-0.03928440436720848f, -0.06869345158338547f, 0.12050195783376694f, 0.005124504212290049f, 0.17346704006195068f, 0.007572748698294163f, -0.3559373617172241f, 0.1787964403629303f, -0.5727763175964355f, 0.36009544134140015f, -0.3680824935436249f, 0.09270220994949341f, 0.043511029332876205f, 0.4903509318828583f, 0.028599878773093224f, 0.277214914560318f, -0.3489576280117035f, 0.25558361411094666f, 0.1587647646665573f, 0.3028879761695862f, -0.2538667917251587f, -0.2319047749042511f, -0.2077445089817047f, -0.1648871898651123f, -0.015534961596131325f, -0.35586729645729065f, 0.24179740250110626f, 0.21941791474819183f, 0.07105406373739243f, -0.09629610180854797f, 0.10840325057506561f, -0.12228727340698242f}
};

const float layer2_b[32] = {0.01215291116386652f, 0.025261882692575455f, 0.016330678015947342f, 0.005744971800595522f, -0.0013959744246676564f, 0.0042078229598701f, 0.01981041394174099f, -0.024091118946671486f, 0.013664946891367435f, 0.00707279983907938f, -0.007082255091518164f, 0.0028797329869121313f, 0.00046289805322885513f, -0.035291559994220734f, 0.01138636190444231f, 0.0037668580189347267f, -0.010282797738909721f, -0.005141965113580227f, 0.008884538896381855f, 0.009275959804654121f, 0.02537878416478634f, 0.001548316446132958f, 0.0339023657143116f, 0.008242007344961166f, -0.014321391470730305f, -0.00662089791148901f, 0.013430112972855568f, 0.005628493148833513f, 0.0027671540156006813f, -0.013460961170494556f, 0.003050660714507103f, 0.015841232612729073f};

const float output_w[1][32] = {
    {0.034950513392686844f, 0.16555802524089813f, -0.05390016734600067f, -0.0014683215413242579f, 0.008910677395761013f, -0.061570510268211365f, -0.0529710091650486f, 0.03783832862973213f, -0.0012826592428609729f, -0.013203790411353111f, 0.04562174901366234f, -0.06327661871910095f, 0.061506036669015884f, 0.051138605922460556f, 0.11517630517482758f, 0.09831088781356812f, 0.037852369248867035f, 0.07049007713794708f, 0.025627288967370987f, 0.028196390718221664f, 0.12766897678375244f, -0.03834611549973488f, -0.05856570601463318f, -0.027562078088521957f, -0.03947238624095917f, -0.045362524688243866f, -0.04734376445412636f, 0.20027856528759003f, 0.039363279938697815f, 0.05029129609465599f, 0.06693746149539948f, -0.03843265399336815f}
};

const float output_b[1] = {0.005076201632618904f};

