// Pesos del modelo Bala2 generados automaticamente

const float layer1_w[32][4] = {
    {-0.43625888228416443f, -0.2489471733570099f, 0.2138943076133728f, 0.03853684663772583f},
    {-0.2907455861568451f, 0.03982318937778473f, 0.008956577628850937f, 0.44817107915878296f},
    {-0.11988949775695801f, -0.26989954710006714f, -0.014196224510669708f, -0.08148006349802017f},
    {0.132232666015625f, 0.4565054178237915f, -0.2503455579280853f, 0.07714365422725677f},
    {0.06415862590074539f, 0.3954241871833801f, 0.34077492356300354f, 0.11829221993684769f},
    {-0.1000034511089325f, 0.07987672090530396f, 0.3716159164905548f, -0.2901875376701355f},
    {-0.42779481410980225f, 0.5933583378791809f, -0.6120560765266418f, -0.039412423968315125f},
    {0.020099561661481857f, -0.8131441473960876f, 0.006648755166679621f, -0.1581277996301651f},
    {-0.33965572714805603f, -0.2791416049003601f, 0.31014174222946167f, -0.11483556777238846f},
    {0.26924875378608704f, -0.08989516645669937f, 0.08458953350782394f, 0.06361844390630722f},
    {-0.16560973227024078f, -0.1930440366268158f, -0.8444966673851013f, 0.4664056897163391f},
    {0.4456848204135895f, -0.23077230155467987f, -0.3601513206958771f, -0.09836026281118393f},
    {0.2788900136947632f, 0.4689696729183197f, -0.4129765033721924f, -0.04886774718761444f},
    {-0.054758403450250626f, -0.24634061753749847f, -0.9636873602867126f, -0.053809329867362976f},
    {0.5460637211799622f, -0.026169894263148308f, 0.716821014881134f, 0.0429161861538887f},
    {0.20431025326251984f, 0.2975328266620636f, -0.07145347446203232f, 0.1256188005208969f},
    {0.024127168580889702f, 0.22090519964694977f, 0.05585993826389313f, 0.06516183912754059f},
    {-0.24009698629379272f, 0.10551933944225311f, 0.110775426030159f, 0.10868225246667862f},
    {0.00647903885692358f, -0.16445408761501312f, 0.3778358995914459f, -0.2092490941286087f},
    {-0.3169669806957245f, 0.09316409379243851f, -0.29235216975212097f, 0.044330477714538574f},
    {-0.21728065609931946f, -0.26943591237068176f, -0.06296945363283157f, -0.23931263387203217f},
    {0.31756770610809326f, -0.45838963985443115f, -0.71871018409729f, 0.016518983989953995f},
    {-0.07164207845926285f, -0.19180764257907867f, 0.24754022061824799f, 0.020161662250757217f},
    {-0.3331317603588104f, -0.30303940176963806f, 0.5725867748260498f, 0.04286272078752518f},
    {0.08910419046878815f, 0.31295618414878845f, -0.11235082149505615f, -0.4813799560070038f},
    {0.11807809770107269f, -0.20780862867832184f, 0.022163445129990578f, -0.04909013211727142f},
    {0.05123426765203476f, 0.37894219160079956f, -0.23362712562084198f, 0.32871660590171814f},
    {-0.07385559380054474f, -0.15766656398773193f, -0.5398116707801819f, -0.0674063041806221f},
    {-0.35539549589157104f, 0.7482779622077942f, -0.6954496502876282f, 0.22855603694915771f},
    {0.052602291107177734f, -0.4288569688796997f, -0.23466257750988007f, -0.08713481575250626f},
    {-0.04772410914301872f, -0.3249169886112213f, -0.14052098989486694f, 0.3336387574672699f},
    {-0.3279608488082886f, -0.033959630876779556f, 0.10294526815414429f, 0.1540297269821167f}
};

const float layer1_b[32] = {0.026213617995381355f, -0.058081191033124924f, 0.017445985227823257f, -0.015841836109757423f, 0.002920114202424884f, -0.002365777036175132f, 0.04299556836485863f, 0.0035967088770121336f, -0.022513680160045624f, -0.014307567849755287f, 0.02012445777654648f, 0.0033895443193614483f, -0.0006014768732711673f, 0.015355933457612991f, -0.014943255111575127f, 0.0009279268560931087f, -0.027805516496300697f, 0.0005415998166427016f, -0.033841464668512344f, -0.02070031873881817f, 0.008832639083266258f, -0.01262542512267828f, -0.03670911863446236f, 0.008351964876055717f, 0.016780037432909012f, -0.02772112935781479f, 0.048604391515254974f, 0.0011732125421985984f, 0.04169486463069916f, -0.0005292683490552008f, -0.01181727834045887f, -0.0066374121233820915f};

const float layer2_w[32][32] = {
    {0.1746392548084259f, 0.22599612176418304f, 0.4964124858379364f, -0.2920708954334259f, 0.33721640706062317f, -0.17698349058628082f, 0.02415730431675911f, 0.04496868699789047f, -0.2711956799030304f, 0.4025164544582367f, -0.1389317512512207f, 0.33243972063064575f, -0.1694314181804657f, -0.17079654335975647f, 0.00765710836276412f, -0.3047621548175812f, -0.12428029626607895f, -0.13776828348636627f, 0.24432021379470825f, -0.2590571641921997f, 0.12483403086662292f, 0.2311234176158905f, 0.13615775108337402f, -0.4929768741130829f, -0.15693257749080658f, -0.2657075524330139f, -0.12622442841529846f, -0.4855831563472748f, -0.01722797378897667f, 0.11600390821695328f, -0.18158353865146637f, 0.12240823358297348f},
    {-0.039697740226984024f, -0.09691818058490753f, 0.010559255257248878f, 0.5200128555297852f, -0.2473452091217041f, -0.26236528158187866f, -0.3388722240924835f, -0.3267246186733246f, 0.2777506113052368f, 0.21280676126480103f, -0.20500797033309937f, 0.17605333030223846f, -0.38526883721351624f, -0.11323517560958862f, 0.4381023347377777f, 0.03385622799396515f, 0.053463857620954514f, 0.21483826637268066f, 0.27467814087867737f, 0.15052643418312073f, 0.3419361114501953f, -0.13458915054798126f, 0.23201732337474823f, 0.6281004548072815f, -0.13770939409732819f, -0.5940095782279968f, -0.30846482515335083f, -0.061293236911296844f, -0.07878236472606659f, 0.06268073618412018f, 0.03339303657412529f, 0.14544610679149628f},
    {-0.1632162183523178f, -0.5570483803749084f, 0.32141199707984924f, -0.10239434987306595f, -0.2704418897628784f, -0.09010866284370422f, 0.4194002151489258f, 0.03198032081127167f, -0.11505693942308426f, -0.35110238194465637f, -0.2614230215549469f, -0.25935688614845276f, -0.37502261996269226f, 0.022115087136626244f, -0.27260032296180725f, 0.24952171742916107f, -0.05314052850008011f, 0.1345311403274536f, 0.28102052211761475f, 0.2985805869102478f, 0.3728187680244446f, -0.1586783528327942f, 0.12627828121185303f, -0.347822368144989f, -0.06418255716562271f, 0.08968941867351532f, -0.03090072236955166f, 0.07439269870519638f, 0.15567710995674133f, 0.12326564639806747f, -0.3512536585330963f, -0.15595076978206635f},
    {0.1969708949327469f, -0.19523662328720093f, -0.3846524655818939f, -0.02106340229511261f, -0.10544809699058533f, -0.23174016177654266f, 0.270327627658844f, 0.44900569319725037f, -0.15784938633441925f, 0.23435267806053162f, 0.16260212659835815f, 0.1129302829504013f, -0.0700489953160286f, 0.2337544858455658f, -0.13067910075187683f, 0.21172824501991272f, -0.04488927125930786f, -0.260715514421463f, -0.0511496439576149f, 0.4345627725124359f, 0.5647860765457153f, 0.08247102051973343f, 0.22266781330108643f, 0.035691242665052414f, -0.1940689980983734f, 0.2014172524213791f, 0.24090991914272308f, -0.3444923162460327f, -0.249490886926651f, -0.09424727410078049f, 0.15911346673965454f, 0.23372724652290344f},
    {0.023800266906619072f, 0.34264132380485535f, 0.24933424592018127f, 0.48995569348335266f, -0.09162344038486481f, -0.4117710292339325f, -0.263360857963562f, 0.08850853145122528f, -0.236595019698143f, -0.3475569486618042f, 0.08191166073083878f, -0.11510743200778961f, -0.2811761498451233f, 0.09679049253463745f, 0.0012884330935776234f, 0.007873049937188625f, 0.1002069041132927f, -0.2790760397911072f, -0.024581434205174446f, -0.25864678621292114f, -0.15880580246448517f, -0.1382654756307602f, -0.17853841185569763f, -0.4241843521595001f, -0.29557889699935913f, -0.25187429785728455f, 0.2523343861103058f, 0.14156049489974976f, -0.26644596457481384f, -0.3768768012523651f, 0.35813194513320923f, 0.20007984340190887f},
    {-0.425759494304657f, 0.1591673046350479f, 0.021261218935251236f, -0.10176006704568863f, 0.191700741648674f, 0.09107343852519989f, -0.2683320641517639f, 0.40758323669433594f, -0.07172639667987823f, 0.06902310997247696f, -0.173025980591774f, 0.3436122238636017f, 0.007285809610038996f, 0.14378727972507477f, 0.12474864721298218f, 0.28773820400238037f, -0.1450781375169754f, 0.2880752682685852f, -0.3718406856060028f, -0.07230078428983688f, 0.2900562882423401f, -0.16995951533317566f, 0.47880879044532776f, -0.2098347693681717f, 0.42945799231529236f, -0.04438116028904915f, -0.06635536998510361f, 0.14968739449977875f, -0.2479841411113739f, -0.18941302597522736f, 0.3169413208961487f, -0.2140074223279953f},
    {-0.5701221823692322f, -0.3320443034172058f, -0.1726602166891098f, 0.15246784687042236f, 0.37276148796081543f, 0.15972569584846497f, -0.22475594282150269f, -0.09216288477182388f, -0.13171660900115967f, -0.158564493060112f, 0.1430640071630478f, 0.39654943346977234f, -0.05402747914195061f, 0.0609881691634655f, -0.289297878742218f, -0.35519829392433167f, 0.3168374001979828f, 0.3703800141811371f, -0.006364109460264444f, 0.1829759180545807f, -0.0827878937125206f, 0.29165998101234436f, -0.02265254221856594f, -0.04006248340010643f, -0.40688851475715637f, 0.11021173745393753f, -0.19772808253765106f, -0.2851923406124115f, 0.07040707767009735f, -0.22418628633022308f, -0.02514471858739853f, 0.015631821006536484f},
    {-0.04146571829915047f, 0.005309436935931444f, 0.01656928099691868f, 0.19285783171653748f, 0.11114516109228134f, 0.4996630847454071f, -0.09170583635568619f, -0.34336578845977783f, -0.10333725064992905f, 0.3694221079349518f, 0.019221985712647438f, -0.04013910889625549f, -0.04196719825267792f, 0.47872331738471985f, -0.26959937810897827f, 0.4136013090610504f, 0.06122405454516411f, -0.31532126665115356f, 0.20180608332157135f, 0.032947883009910583f, 0.34976571798324585f, 0.4509398341178894f, -0.17954891920089722f, -0.3830111026763916f, 0.3092564046382904f, 0.04295565187931061f, -0.1842031627893448f, 0.4403216242790222f, 0.005264442879706621f, 0.10689683258533478f, -0.1631934642791748f, 0.19838199019432068f},
    {-0.29786786437034607f, 0.018358251079916954f, 0.5209038257598877f, -0.12378859519958496f, 0.07436122745275497f, 0.04378727450966835f, -0.18326260149478912f, -0.19951847195625305f, 0.25861942768096924f, 0.11680060625076294f, 0.13403555750846863f, -0.03290008381009102f, -0.04786580801010132f, 0.23930838704109192f, -0.3409135341644287f, -0.42428117990493774f, 0.18426863849163055f, -0.19703128933906555f, -0.09071694314479828f, 0.006065791007131338f, 0.3310672640800476f, -0.22739148139953613f, -0.14200885593891144f, 0.24640481173992157f, 0.2918754518032074f, 0.13712599873542786f, 0.7260576486587524f, -0.18472900986671448f, -0.0043583526276052f, 0.30165040493011475f, 0.24098461866378784f, 0.1350296437740326f},
    {-0.009570079855620861f, -0.1997041404247284f, -0.06697394698858261f, -0.009029502049088478f, -0.18381981551647186f, 0.19604095816612244f, -0.05741007998585701f, -0.04295990243554115f, -0.2212563306093216f, 0.1563672572374344f, 0.23103109002113342f, -0.059698108583688736f, -0.48238059878349304f, -0.14038243889808655f, 0.6648412346839905f, -0.07651428878307343f, 0.17779405415058136f, 0.44319164752960205f, -0.3227366805076599f, -0.3921283185482025f, 0.332798570394516f, -0.31513601541519165f, -0.4359912574291229f, -0.2135811150074005f, -0.040404848754405975f, 0.255847692489624f, 0.012600581161677837f, -0.027673177421092987f, 0.10119573026895523f, 0.07816439121961594f, -0.02931595966219902f, 0.12427623569965363f},
    {-0.5876650214195251f, -0.07841436564922333f, -0.07272081822156906f, 0.12333690375089645f, -0.21868017315864563f, -0.23857305943965912f, 0.05454997718334198f, -0.01996094360947609f, 0.14008784294128418f, 0.2490934431552887f, 0.01522683072835207f, 0.06286682188510895f, 0.31345075368881226f, -0.9540411829948425f, -0.09032268822193146f, 0.3204742968082428f, 0.1006164699792862f, -0.28534600138664246f, 0.017823031172156334f, -0.17631597816944122f, 0.21614506840705872f, 0.03343018516898155f, -0.12485131621360779f, -0.06708940863609314f, 0.1425803303718567f, -0.015636291354894638f, 0.1485355645418167f, -0.0017697507282719016f, 0.2501177489757538f, -0.33442017436027527f, -0.13993586599826813f, 0.059944991022348404f},
    {0.1841401606798172f, 0.17962540686130524f, -0.34916040301322937f, 0.15111874043941498f, 0.32432782649993896f, 0.13236865401268005f, 0.05142214149236679f, -0.1513420194387436f, 0.3988702893257141f, -0.05697140470147133f, -0.03841762617230415f, 0.11974789947271347f, -0.6270380020141602f, -0.36636242270469666f, -0.4281238615512848f, 0.4202060103416443f, 0.057893071323633194f, 0.21316911280155182f, 0.13696527481079102f, -0.32747241854667664f, -0.14546361565589905f, -0.14612291753292084f, 0.08230724930763245f, -0.048569206148386f, -0.014905096031725407f, -0.0063812509179115295f, 0.19497214257717133f, -0.21675093472003937f, -0.23668158054351807f, 0.35766276717185974f, 0.17456789314746857f, -0.25208747386932373f},
    {0.029935071244835854f, 0.3618672788143158f, 0.13282351195812225f, -0.09137287735939026f, 0.2650991976261139f, -0.35952478647232056f, 0.552466094493866f, -0.6224409937858582f, -0.16286717355251312f, -0.09524589776992798f, -0.13146422803401947f, 0.14938105642795563f, 0.1708863079547882f, 0.13234029710292816f, 0.2232155054807663f, 0.11594501882791519f, 0.33398112654685974f, 0.10973936319351196f, -0.0464145801961422f, -0.1252918541431427f, 0.34032344818115234f, 0.03219974786043167f, 0.037384528666734695f, 0.2508392930030823f, 0.0030188066884875298f, 0.2590588331222534f, 0.00951329804956913f, 0.08036360889673233f, -0.2224867343902588f, -0.28369468450546265f, -0.15111498534679413f, -0.400056928396225f},
    {0.02276826649904251f, -0.4327862560749054f, -0.3284524977207184f, 0.21817855536937714f, 0.49680712819099426f, -0.30560794472694397f, -0.0473654605448246f, -0.3815714716911316f, -0.0019564079120755196f, -0.11410099267959595f, 0.11387182027101517f, 0.007967790588736534f, 0.14224585890769958f, -0.07786193490028381f, 0.28027790784835815f, -0.1678052395582199f, -0.3355022966861725f, -0.2414124608039856f, -0.38543111085891724f, 0.12832286953926086f, 0.0017179505666717887f, -0.24439769983291626f, 0.28729957342147827f, -0.31844133138656616f, 0.17379358410835266f, -0.2710094153881073f, 0.2668820023536682f, 0.14494843780994415f, 0.05290582776069641f, 0.3090769350528717f, -0.38768628239631653f, -0.0034781419672071934f},
    {-0.1892511397600174f, 0.0254630409181118f, 0.0033256199676543474f, 0.11918631941080093f, -0.0371367372572422f, 0.21791750192642212f, 0.3851642310619354f, 0.1675168126821518f, 0.37038207054138184f, 0.3898412585258484f, -0.5430205464363098f, -0.191457137465477f, -0.15491874516010284f, 0.14013108611106873f, 0.35790732502937317f, 0.06478511542081833f, -0.05279139056801796f, 0.11970116943120956f, -0.42649319767951965f, 0.17674274742603302f, -0.2525825500488281f, 0.37864840030670166f, -0.24815607070922852f, -0.02611994370818138f, -0.18255698680877686f, -0.3470184803009033f, 0.3697870373725891f, -0.23481598496437073f, -0.08349768072366714f, -0.12087815999984741f, -0.16737119853496552f, -0.119394950568676f},
    {0.19394747912883759f, -0.49744123220443726f, 0.17495016753673553f, 0.2523799538612366f, -0.007562626153230667f, -0.20690220594406128f, 0.3403935134410858f, -0.03431054949760437f, 0.26676589250564575f, 0.6474667191505432f, 0.2644653916358948f, -0.0336526557803154f, 0.298841267824173f, 0.021725263446569443f, -0.27752283215522766f, -0.25258880853652954f, -0.06189430132508278f, 0.2505226731300354f, 0.043208591639995575f, -0.13381622731685638f, -0.14384672045707703f, -0.10450255870819092f, -0.03360914811491966f, -0.2839546203613281f, -0.0404280349612236f, 0.1812163144350052f, -0.1655779331922531f, 0.30241766571998596f, -0.45573341846466064f, -0.1250392347574234f, 0.2986272871494293f, -0.105919748544693f},
    {0.09478785842657089f, -0.13967204093933105f, 0.08361240476369858f, -0.4614080786705017f, 0.24470922350883484f, -0.040628086775541306f, -0.22685621678829193f, 0.010760229080915451f, 0.06557439267635345f, 0.07788698375225067f, -0.0027220246847718954f, 0.05262141674757004f, -0.20665596425533295f, 0.058400921523571014f, -0.42271047830581665f, 0.13038849830627441f, 0.10339778661727905f, -0.34675219655036926f, -0.4740583002567291f, 0.10681746900081635f, 0.05626973882317543f, -0.4403137266635895f, -0.4612240791320801f, 0.160263329744339f, -0.2818121910095215f, -0.3226003050804138f, -0.2727730870246887f, 0.20158405601978302f, -0.20593640208244324f, -0.3529442548751831f, -0.24502165615558624f, -0.16748641431331635f},
    {-0.0006764057325199246f, 0.035276684910058975f, -0.07016554474830627f, 0.041696883738040924f, 0.2835919260978699f, 0.26251479983329773f, 0.42481401562690735f, 0.20571687817573547f, 0.12705954909324646f, -0.13798201084136963f, 0.42713862657546997f, 0.46789035201072693f, -0.19375748932361603f, 0.08486001193523407f, 0.12224168330430984f, -0.04811382666230202f, -0.40735843777656555f, -0.03559531271457672f, 0.3627553880214691f, -0.24766020476818085f, 0.0175634752959013f, -0.14163485169410706f, -0.13591432571411133f, 0.27324938774108887f, 0.019718986004590988f, -0.11030136793851852f, 0.3190271556377411f, 0.24734270572662354f, 0.10313306003808975f, -0.4467971920967102f, -0.2607199251651764f, 0.32831278443336487f},
    {0.11227859556674957f, -0.12891186773777008f, 0.2768281400203705f, 0.17325738072395325f, 0.644773542881012f, 0.17938148975372314f, -0.2657713294029236f, 0.23918579518795013f, -0.009611083194613457f, -0.09775315970182419f, -0.11814076453447342f, -0.7064428329467773f, 0.06658077985048294f, -0.2624860405921936f, 0.17581886053085327f, -0.005369718186557293f, -0.04216478019952774f, 0.28880080580711365f, 0.29324251413345337f, -0.009136098437011242f, 0.26399993896484375f, 0.049660574644804f, 0.1745912730693817f, 0.20870089530944824f, -0.11991031467914581f, -0.08455231040716171f, 0.22141331434249878f, 0.11424865573644638f, 0.028079159557819366f, -0.3247978389263153f, 0.08962573111057281f, -0.1448201835155487f},
    {0.19915667176246643f, 0.04398500174283981f, 0.0403444878757f, 0.28338727355003357f, 0.025923021137714386f, 0.27318498492240906f, 0.07825769484043121f, -0.20498372614383698f, 0.11533232778310776f, 0.21171092987060547f, -0.6041291356086731f, 0.17352847754955292f, -0.14048989117145538f, -0.0578097328543663f, 0.0011169306235387921f, -0.15305045247077942f, 0.024159446358680725f, -0.21054181456565857f, -0.09820325672626495f, 0.14465373754501343f, -0.14049939811229706f, -0.5531421303749084f, 0.38575854897499084f, -0.08169405162334442f, -0.1095825582742691f, 0.42330193519592285f, -0.05155802518129349f, 0.032865896821022034f, 0.5654703378677368f, -0.40262410044670105f, 0.13269685208797455f, 0.19483238458633423f},
    {0.045523371547460556f, -0.3390222489833832f, -0.316339910030365f, 0.15863941609859467f, 0.11542714387178421f, 0.39456707239151f, 0.38280168175697327f, -0.09730563312768936f, -0.6194037795066833f, 0.03640341758728027f, -0.21667882800102234f, -0.13915136456489563f, -0.04655167832970619f, -0.34169262647628784f, 0.2549070119857788f, -0.07617746293544769f, 0.49637141823768616f, -0.2375078946352005f, 0.13524074852466583f, 0.10767797380685806f, -0.12193714827299118f, -0.2230810672044754f, -0.019921857863664627f, 0.20995976030826569f, 0.432448148727417f, -0.4731157124042511f, -0.07878338545560837f, -0.30201223492622375f, -0.15620489418506622f, -0.08018288016319275f, 0.3860565721988678f, -0.013094528578221798f},
    {0.1536334604024887f, -0.032541435211896896f, 0.24864785373210907f, 0.07793470472097397f, 0.044625163078308105f, -0.19607701897621155f, 0.013956931419670582f, -0.03199129179120064f, -0.21190032362937927f, 0.014986896887421608f, -0.0598650760948658f, 0.44629475474357605f, -0.09315723925828934f, -0.2172834724187851f, 0.029286272823810577f, 0.11052043735980988f, -0.2670153081417084f, 0.3005611002445221f, 0.1480213850736618f, 0.7929442524909973f, -0.18159110844135284f, 0.009054525755345821f, -0.550215482711792f, -0.0955076664686203f, 0.46248388290405273f, 0.009176226332783699f, 0.14586539566516876f, 0.11250008642673492f, 0.17151881754398346f, -0.033313460648059845f, 0.21205124258995056f, -0.243183434009552f},
    {0.096845343708992f, 0.24432536959648132f, -0.09087232500314713f, 0.3521989583969116f, 0.16533687710762024f, 0.11908187717199326f, 0.17130406200885773f, 0.13244998455047607f, 0.1763799637556076f, -0.12655580043792725f, 0.11692286282777786f, 0.07825470715761185f, 0.5451145768165588f, 0.13471649587154388f, -0.07053312659263611f, 0.04235216602683067f, -0.17793436348438263f, -0.11324805021286011f, -0.04822627082467079f, 0.005872469861060381f, 0.5215232968330383f, -0.26725131273269653f, -0.4648978114128113f, -0.25354522466659546f, -0.2919515073299408f, -0.12242630869150162f, -0.22550204396247864f, -0.2730911076068878f, 0.44189202785491943f, 0.24959439039230347f, 0.26648950576782227f, -0.36891642212867737f},
    {0.06652794033288956f, -0.026061611250042915f, -0.22422689199447632f, -0.34155160188674927f, -0.011843440122902393f, -0.172653466463089f, 0.18422222137451172f, 0.15358982980251312f, 0.3635936975479126f, -0.0880986899137497f, 0.10197155177593231f, 0.11510314047336578f, -0.3039397597312927f, 0.004849455319344997f, 0.04914122819900513f, -0.4275946319103241f, 0.38519087433815f, -0.2554687559604645f, 0.009544086642563343f, 0.06511034071445465f, 0.21540099382400513f, 0.44548651576042175f, 0.1098819300532341f, -0.28413814306259155f, 0.0014189257053658366f, -0.1449192464351654f, 0.021854672580957413f, 0.5928249955177307f, 0.4152509868144989f, 0.011920752003788948f, 0.39100053906440735f, -0.3253088891506195f},
    {-0.36361178755760193f, -0.12827186286449432f, -0.01242766622453928f, -0.1197676807641983f, 0.4294448494911194f, -0.4965517520904541f, 0.07883649319410324f, 0.14950589835643768f, 0.08272279798984528f, 0.1862882524728775f, -0.01547100581228733f, -0.33475953340530396f, -0.3490661084651947f, 0.25723132491111755f, 0.16185525059700012f, 0.12756948173046112f, -0.26305362582206726f, -0.24582789838314056f, 0.14883026480674744f, -0.2260000854730606f, -0.209656223654747f, -0.041526421904563904f, -0.20565512776374817f, 0.28559157252311707f, 0.2501109838485718f, 0.22080019116401672f, -0.47444793581962585f, -0.19230951368808746f, 0.30122390389442444f, 0.05079513415694237f, 0.2722392678260803f, 0.05883058160543442f},
    {0.27312302589416504f, -0.4633200764656067f, -0.13848412036895752f, 0.19825641810894012f, -0.1430530846118927f, -0.2360350340604782f, -0.16265465319156647f, 0.13867169618606567f, 0.3094388544559479f, -0.24209631979465485f, -0.27767983078956604f, 0.17681792378425598f, 0.12411190569400787f, 0.4549175202846527f, -0.029032422229647636f, 0.044062718749046326f, 0.34854087233543396f, 0.009750704281032085f, 0.18840675055980682f, -0.24902229011058807f, 0.02174064703285694f, 0.12632715702056885f, -0.1464233547449112f, -0.20962083339691162f, 0.6039859652519226f, 0.056409891694784164f, 0.06815183907747269f, -0.41456714272499084f, 0.07279013842344284f, -0.34959396719932556f, -0.3302003741264343f, -0.18898005783557892f},
    {-0.10977552086114883f, 0.13723492622375488f, -0.38686493039131165f, 0.38956233859062195f, -0.115483857691288f, -0.16417624056339264f, 0.0030684261582791805f, 0.28747230768203735f, -0.5116719603538513f, 0.20889809727668762f, -0.4337896406650543f, -0.028056999668478966f, -0.15862293541431427f, 0.0586128830909729f, -0.41281601786613464f, -0.5066187977790833f, -0.21727289259433746f, -0.016096727922558784f, 0.018149832263588905f, -0.18450644612312317f, 0.17088371515274048f, 0.0960909053683281f, -0.18113285303115845f, 0.2311868518590927f, 0.09635602682828903f, 0.20092223584651947f, 0.10304024815559387f, 0.2994881570339203f, -0.02666953206062317f, 0.17545348405838013f, -0.34520280361175537f, -0.3740968108177185f},
    {0.031145604327321053f, 0.18613958358764648f, -0.5254079699516296f, -0.5642653703689575f, -0.18363383412361145f, -0.07818858325481415f, -0.2517301142215729f, -0.37473249435424805f, -0.0072492570616304874f, 0.219889298081398f, -0.10956236720085144f, -0.27155205607414246f, 0.08466464281082153f, 0.11073092371225357f, -0.12823185324668884f, -0.18203674256801605f, -0.2986152470111847f, 0.39440271258354187f, 0.36238762736320496f, -0.055230360478162766f, 0.1411517858505249f, -0.25747352838516235f, -0.069991834461689f, -0.1735903024673462f, 0.02634366974234581f, -0.3502518832683563f, 0.17045259475708008f, -0.09996141493320465f, 0.09826584905385971f, -0.37147292494773865f, 0.14182500541210175f, 0.07899028807878494f},
    {0.2057676762342453f, -0.07972884923219681f, 0.0742901936173439f, -0.13079407811164856f, 0.17573057115077972f, -0.23073029518127441f, -0.07297200709581375f, 0.39876776933670044f, -0.18773019313812256f, 0.29300111532211304f, -0.13761617243289948f, 0.2145666629076004f, 0.27083542943000793f, 0.11642571538686752f, -0.058354783803224564f, 0.3199903666973114f, 0.5428689122200012f, 0.32092419266700745f, 0.08847742527723312f, -0.22808443009853363f, -0.15173876285552979f, -0.2559548318386078f, 0.024684537202119827f, 0.18609556555747986f, -0.15491317212581635f, -0.2538028657436371f, 0.22956085205078125f, 0.3090781569480896f, 0.3878364861011505f, 0.3626639246940613f, -0.125388965010643f, 0.23558813333511353f},
    {-0.18674150109291077f, -0.39554521441459656f, 0.12184583395719528f, -0.21657322347164154f, -0.16565778851509094f, 0.1187075600028038f, -0.22239013016223907f, -0.20862804353237152f, -0.24562235176563263f, 0.10860555619001389f, 0.04547882080078125f, 0.3147229254245758f, 0.13060006499290466f, 0.3166015148162842f, 0.12089370936155319f, 0.2756589353084564f, -0.31616708636283875f, -0.380505234003067f, 0.2530716359615326f, -0.35904473066329956f, -0.19239504635334015f, 0.04932599142193794f, -0.0017499588429927826f, 0.01259787380695343f, -0.5382192134857178f, 0.07355151325464249f, 0.41911911964416504f, 0.08860950171947479f, 0.06188768148422241f, 0.05117490515112877f, 0.32624974846839905f, -0.5949044823646545f},
    {-0.10268479585647583f, 0.28552061319351196f, 0.08732428401708603f, 0.22109805047512054f, -0.18272928893566132f, 0.0919441431760788f, 0.00374536938033998f, 0.12195175886154175f, -0.07780850678682327f, 0.3965831398963928f, 0.6731801629066467f, -0.19355659186840057f, -0.20011240243911743f, 0.1189756765961647f, 0.032264892011880875f, -0.011563529260456562f, 0.2226366549730301f, -0.04550867900252342f, 0.09551261365413666f, 0.23560170829296112f, -0.22355987131595612f, -0.28822988271713257f, 0.347494900226593f, -0.049195751547813416f, 0.16702818870544434f, -0.17459829151630402f, -0.01855134218931198f, -0.19958564639091492f, 0.2521008551120758f, -0.17295721173286438f, -0.39305442571640015f, -0.6002271175384521f},
    {0.33629468083381653f, -0.2722952663898468f, 0.2674221396446228f, 0.10865376144647598f, -0.22037163376808167f, 0.0695066750049591f, 0.1933489441871643f, -0.15461352467536926f, -0.20923969149589539f, -0.10267862677574158f, 0.14714480936527252f, 0.005869698710739613f, -0.07419178634881973f, -0.04168832674622536f, -0.42155635356903076f, 0.034129250794649124f, -0.3206123113632202f, 0.19842465221881866f, -0.5672703981399536f, -0.35606497526168823f, 0.15897659957408905f, 0.32758113741874695f, 0.18428713083267212f, 0.2864166498184204f, 0.2412491738796234f, -0.33779552578926086f, -0.09331270307302475f, -0.12854130566120148f, 0.45533281564712524f, -0.20494143664836884f, 0.15706612169742584f, -0.0526665560901165f}
};

const float layer2_b[32] = {-0.007730826269835234f, 0.0011530473129823804f, 0.013172932900488377f, 0.0004732768575195223f, -0.005968336947262287f, -0.001757193822413683f, 0.0049120276235044f, -0.039686162024736404f, -0.007468278054147959f, 0.007832429371774197f, -0.008317317813634872f, 0.018018225207924843f, 0.010838467627763748f, 0.006128362379968166f, 0.012263073585927486f, -0.009001519531011581f, -0.006940539460629225f, -0.013940967619419098f, 0.010658138431608677f, -2.8918178941239603e-05f, -0.005320740398019552f, 0.0035790116526186466f, -0.004118906334042549f, -0.01665748655796051f, 0.023104915395379066f, -0.005867871921509504f, -0.023791037499904633f, 0.025524741038680077f, 0.0076590534299612045f, 0.028756115585565567f, -2.6486170099815354e-05f, 0.012376610189676285f};

const float output_w[1][32] = {
    {0.006043128203600645f, 0.15750978887081146f, -0.04106178134679794f, -0.00021031597862020135f, 0.04562994837760925f, -0.010333399288356304f, 0.029253188520669937f, -0.03743669390678406f, -0.04045620560646057f, 0.030013423413038254f, -0.017121700569987297f, 0.05230638384819031f, 0.009891300462186337f, -0.012668168172240257f, 0.08389046788215637f, -0.03826258331537247f, -0.007368562277406454f, -0.03903979808092117f, 0.07932443171739578f, 0.0038735002744942904f, 0.15320110321044922f, -0.0038849494885653257f, -0.12478446215391159f, -0.06166452914476395f, 0.012553161010146141f, -0.051331281661987305f, -0.03192908689379692f, 0.05023225396871567f, 0.03638429567217827f, -0.0872795507311821f, 0.004166860599070787f, -0.024831749498844147f}
};

const float output_b[1] = {0.010742693208158016f};

